{"learner":{"attributes":{"scikit_learn":"{\"_estimator_type\": \"regressor\"}"},"feature_names":[],"feature_types":[],"gradient_booster":{"model":{"gbtree_model_param":{"num_parallel_tree":"1","num_trees":"100"},"iteration_indptr":[0,1,2,3,4,5,6,7,8,9,10,11,12,13,14,15,16,17,18,19,20,21,22,23,24,25,26,27,28,29,30,31,32,33,34,35,36,37,38,39,40,41,42,43,44,45,46,47,48,49,50,51,52,53,54,55,56,57,58,59,60,61,62,63,64,65,66,67,68,69,70,71,72,73,74,75,76,77,78,79,80,81,82,83,84,85,86,87,88,89,90,91,92,93,94,95,96,97,98,99,100],"tree_info":[0,0,0,0,0,0,0,0,0,0,0,0,0,0,0,0,0,0,0,0,0,0,0,0,0,0,0,0,0,0,0,0,0,0,0,0,0,0,0,0,0,0,0,0,0,0,0,0,0,0,0,0,0,0,0,0,0,0,0,0,0,0,0,0,0,0,0,0,0,0,0,0,0,0,0,0,0,0,0,0,0,0,0,0,0,0,0,0,0,0,0,0,0,0,0,0,0,0,0,0],"trees":[{"base_weights":[7.7351485E-3,-4.492149E4,7.1874394E5,-5.5069555E4,2.0225139E4,3.7520113E4,9.372198E4,-5.8004453E4,8.1855938E3,-5.83083E3,-1.5633016E3,-5.061672E2,1.2762828E3],"categories":[],"categories_nodes":[],"categories_segments":[],"categories_sizes":[],"default_left":[0,0,0,0,0,0,0,0,0,0,0,0,0],"id":0,"left_children":[1,3,5,7,-1,-1,-1,9,11,-1,-1,-1,-1],"loss_changes":[3.2932794E12,2.5193716E11,9.868883E10,1.7740038E10,0E0,0E0,0E0,2.342912E8,3.677804E8,0E0,0E0,0E0,0E0],"parents":[2147483647,0,0,1,1,2,2,3,3,7,7,8,8],"right_children":[2,4,6,8,-1,-1,-1,10,12,-1,-1,-1,-1],"split_conditions":[1.955483E0,1.0360461E0,4.415386E0,-4.3150634E-2,2.0225139E4,3.7520113E4,9.372198E4,-1.3327093E-1,4.6149567E-2,-5.83083E3,-1.5633016E3,-5.061672E2,1.2762828E3],"split_indices":[0,0,0,0,0,0,0,0,0,0,0,0,0],"split_type":[0,0,0,0,0,0,0,0,0,0,0,0,0],"sum_hessian":[1E2,9.5E1,5E0,9.2E1,3E0,3E0,2E0,8.8E1,4E0,8.7E1,1E0,1E0,3E0],"tree_param":{"num_deleted":"0","num_feature":"4","num_nodes":"13","size_leaf_vector":"1"}},{"base_weights":[1.4341095E3,-4.028765E4,6.6874325E5,-4.9633812E4,1.8708254E4,3.4706105E4,8.747384E4,-5.2287074E4,7.521056E3,-5.2543716E3,-1.485136E3,-4.8085938E2,1.1805618E3],"categories":[],"categories_nodes":[],"categories_segments":[],"categories_sizes":[],"default_left":[0,0,0,0,0,0,0,0,0,0,0,0,0],"id":1,"left_children":[1,3,5,7,-1,-1,-1,9,11,-1,-1,-1,-1],"loss_changes":[2.8389147E12,2.1328934E11,9.400222E10,1.4496432E10,0E0,0E0,0E0,7.472742E7,3.2090406E8,0E0,0E0,0E0,0E0],"parents":[2147483647,0,0,1,1,2,2,3,3,7,7,8,8],"right_children":[2,4,6,8,-1,-1,-1,10,12,-1,-1,-1,-1],"split_conditions":[1.955483E0,1.0360461E0,4.415386E0,-4.3150634E-2,1.8708254E4,3.4706105E4,8.747384E4,-1.3327093E-1,4.6149567E-2,-5.2543716E3,-1.485136E3,-4.8085938E2,1.1805618E3],"split_indices":[0,0,0,0,0,0,0,0,0,0,0,0,0],"split_type":[0,0,0,0,0,0,0,0,0,0,0,0,0],"sum_hessian":[1E2,9.5E1,5E0,9.2E1,3E0,3E0,2E0,8.8E1,4E0,8.7E1,1E0,1E0,3E0],"tree_param":{"num_deleted":"0","num_feature":"4","num_nodes":"13","size_leaf_vector":"1"}},{"base_weights":[2.6258354E3,-3.6126918E4,6.2223225E5,-4.473537E4,1.7305135E4,3.2103146E4,8.164226E4,-4.713409E3,6.9088877E3,-4.568172E2,1.0920195E3],"categories":[],"categories_nodes":[],"categories_segments":[],"categories_sizes":[],"default_left":[0,0,0,0,0,0,0,0,0,0,0],"id":2,"left_children":[1,3,5,7,-1,-1,-1,-1,9,-1,-1],"loss_changes":[2.4476362E12,1.8060883E11,8.884453E10,1.1846484E10,0E0,0E0,0E0,0E0,2.800754E8,0E0,0E0],"parents":[2147483647,0,0,1,1,2,2,3,3,8,8],"right_children":[2,4,6,8,-1,-1,-1,-1,10,-1,-1],"split_conditions":[1.955483E0,1.0360461E0,4.415386E0,-4.3150634E-2,1.7305135E4,3.2103146E4,8.164226E4,-4.713409E3,4.6149567E-2,-4.568172E2,1.0920195E3],"split_indices":[0,0,0,0,0,0,0,0,0,0,0],"split_type":[0,0,0,0,0,0,0,0,0,0,0],"sum_hessian":[1E2,9.5E1,5E0,9.2E1,3E0,3E0,2E0,8.8E1,4E0,1E0,3E0],"tree_param":{"num_deleted":"0","num_feature":"4","num_nodes":"11","size_leaf_vector":"1"}},{"base_weights":[3.620401E3,-3.237645E4,5.789666E5,-4.0305688E4,1.600725E4,2.969541E4,7.619944E4,-4.2473645E4,6.3450312E3,-4.2689204E3,-1.1752094E3,-4.3397656E2,1.0101172E3],"categories":[],"categories_nodes":[],"categories_segments":[],"categories_sizes":[],"default_left":[0,0,0,0,0,0,0,0,0,0,0,0,0],"id":3,"left_children":[1,3,5,7,-1,-1,-1,9,11,-1,-1,-1,-1],"loss_changes":[2.1105206E12,1.5294533E11,8.341946E10,9.675211E9,0E0,0E0,0E0,8.770355E7,2.445047E8,0E0,0E0,0E0,0E0],"parents":[2147483647,0,0,1,1,2,2,3,3,7,7,8,8],"right_children":[2,4,6,8,-1,-1,-1,10,12,-1,-1,-1,-1],"split_conditions":[1.955483E0,1.0360461E0,4.415386E0,-4.3150634E-2,1.600725E4,2.969541E4,7.619944E4,-1.3327093E-1,4.6149567E-2,-4.2689204E3,-1.1752094E3,-4.3397656E2,1.0101172E3],"split_indices":[0,0,0,0,0,0,0,0,0,0,0,0,0],"split_type":[0,0,0,0,0,0,0,0,0,0,0,0,0],"sum_hessian":[1E2,9.5E1,5E0,9.2E1,3E0,3E0,2E0,8.8E1,4E0,8.7E1,1E0,1E0,3E0],"tree_param":{"num_deleted":"0","num_feature":"4","num_nodes":"13","size_leaf_vector":"1"}},{"base_weights":[4.4171016E3,-2.9022783E4,5.3871906E5,-3.6327477E4,1.4806706E4,2.7468254E4,7.111948E4,-3.828746E4,5.82575E3,-3.8468809E3,-1.1164485E3,-4.1227814E2,9.3435785E2],"categories":[],"categories_nodes":[],"categories_segments":[],"categories_sizes":[],"default_left":[0,0,0,0,0,0,0,0,0,0,0,0,0],"id":4,"left_children":[1,3,5,7,-1,-1,-1,9,11,-1,-1,-1,-1],"loss_changes":[1.8202017E12,1.2956326E11,7.788665E10,7.906689E9,0E0,0E0,0E0,8.282112E6,2.1350766E8,0E0,0E0,0E0,0E0],"parents":[2147483647,0,0,1,1,2,2,3,3,7,7,8,8],"right_children":[2,4,6,8,-1,-1,-1,10,12,-1,-1,-1,-1],"split_conditions":[1.955483E0,1.0360461E0,4.415386E0,-4.3150634E-2,1.4806706E4,2.7468254E4,7.111948E4,-1.3327093E-1,4.6149567E-2,-3.8468809E3,-1.1164485E3,-4.1227814E2,9.3435785E2],"split_indices":[0,0,0,0,0,0,0,0,0,0,0,0,0],"split_type":[0,0,0,0,0,0,0,0,0,0,0,0,0],"sum_hessian":[1E2,9.5E1,5E0,9.2E1,3E0,3E0,2E0,8.8E1,4E0,8.7E1,1E0,1E0,3E0],"tree_param":{"num_deleted":"0","num_feature":"4","num_nodes":"13","size_leaf_vector":"1"}},{"base_weights":[5.0541304E3,-2.6012537E4,5.0127844E5,-3.274249E4,1.3696203E4,2.5408135E4,6.637818E4,-3.451449E3,5.3476E3,-3.9166406E2,8.64282E3,2.666797E2,9.7458954E2],"categories":[],"categories_nodes":[],"categories_segments":[],"categories_sizes":[],"default_left":[0,0,0,0,0,0,0,0,0,0,0,0,0],"id":5,"left_children":[1,3,5,7,-1,-1,-1,-1,9,-1,11,-1,-1],"loss_changes":[1.570059E12,1.0977837E11,7.23676E10,6.461661E9,0E0,0E0,0E0,0E0,1.864894E8,0E0,3.77696E5,0E0,0E0],"parents":[2147483647,0,0,1,1,2,2,3,3,8,8,10,10],"right_children":[2,4,6,8,-1,-1,-1,-1,10,-1,12,-1,-1],"split_conditions":[1.955483E0,1.0360461E0,4.415386E0,-4.3150634E-2,1.3696203E4,2.5408135E4,6.637818E4,-3.451449E3,4.6149567E-2,-3.9166406E2,5.5643562E-2,2.666797E2,9.7458954E2],"split_indices":[0,0,0,0,0,0,0,0,0,0,0,0,0],"split_type":[0,0,0,0,0,0,0,0,0,0,0,0,0],"sum_hessian":[1E2,9.5E1,5E0,9.2E1,3E0,3E0,2E0,8.8E1,4E0,1E0,3E0,1E0,2E0],"tree_param":{"num_deleted":"0","num_feature":"4","num_nodes":"13","size_leaf_vector":"1"}},{"base_weights":[5.5673257E3,-2.3295729E4,4.6644828E5,-2.9496229E4,1.2668986E4,2.3502523E4,6.1952965E4,-3.1101832E4,4.9827563E3,-3.1253433E3,-8.880547E2,-3.7208127E2,8.088852E2],"categories":[],"categories_nodes":[],"categories_segments":[],"categories_sizes":[],"default_left":[0,0,0,0,0,0,0,0,0,0,0,0,0],"id":6,"left_children":[1,3,5,7,-1,-1,-1,9,11,-1,-1,-1,-1],"loss_changes":[1.3544119E12,9.301551E10,6.69542E10,5.3034107E9,0E0,0E0,0E0,2.2265856E7,1.6526768E8,0E0,0E0,0E0,0E0],"parents":[2147483647,0,0,1,1,2,2,3,3,7,7,8,8],"right_children":[2,4,6,8,-1,-1,-1,10,12,-1,-1,-1,-1],"split_conditions":[1.955483E0,1.0360461E0,4.415386E0,-4.3150634E-2,1.2668986E4,2.3502523E4,6.1952965E4,-1.3327093E-1,4.6149567E-2,-3.1253433E3,-8.880547E2,-3.7208127E2,8.088852E2],"split_indices":[0,0,0,0,0,0,0,0,0,0,0,0,0],"split_type":[0,0,0,0,0,0,0,0,0,0,0,0,0],"sum_hessian":[1E2,9.5E1,5E0,9.2E1,3E0,3E0,2E0,8.8E1,4E0,8.7E1,1E0,1E0,3E0],"tree_param":{"num_deleted":"0","num_feature":"4","num_nodes":"13","size_leaf_vector":"1"}},{"base_weights":[5.946713E3,-2.0871441E4,4.3404606E5,-2.6585062E4,1.1718812E4,2.1739836E4,5.782277E4,-2.8036742E4,4.57185E3,-2.8272068E3,-1.186675E3,-3.5347656E2,7.4821953E3,3.345167E2,9.9466406E2],"categories":[],"categories_nodes":[],"categories_segments":[],"categories_sizes":[],"default_left":[0,0,0,0,0,0,0,0,0,0,0,0,0,0,0],"id":7,"left_children":[1,3,5,7,-1,-1,-1,9,11,-1,-1,-1,13,-1,-1],"loss_changes":[1.1686234E12,7.884217E10,6.171394E10,4.334555E9,0E0,0E0,0E0,3.170304E6,1.4441306E8,0E0,0E0,0E0,7.508736E6,0E0,0E0],"parents":[2147483647,0,0,1,1,2,2,3,3,7,7,8,8,12,12],"right_children":[2,4,6,8,-1,-1,-1,10,12,-1,-1,-1,14,-1,-1],"split_conditions":[1.955483E0,1.0360461E0,4.415386E0,-4.3150634E-2,1.1718812E4,2.1739836E4,5.782277E4,-2.0979264E-1,4.6149567E-2,-2.8272068E3,-1.186675E3,-3.5347656E2,1.15811996E-1,3.345167E2,9.9466406E2],"split_indices":[0,0,0,0,0,0,0,0,0,0,0,0,0,0,0],"split_type":[0,0,0,0,0,0,0,0,0,0,0,0,0,0,0],"sum_hessian":[1E2,9.5E1,5E0,9.2E1,3E0,3E0,2E0,8.8E1,4E0,8.6E1,2E0,1E0,3E0,2E0,1E0],"tree_param":{"num_deleted":"0","num_feature":"4","num_nodes":"15","size_leaf_vector":"1"}},{"base_weights":[6.225748E3,-1.8693863E4,4.039019E5,-2.3959215E4,1.08399E4,2.010935E4,5.3967918E4,-2.5278157E3,4.3098E3,-3.3580313E2,7.0662656E3,3.1221457E2,9.449313E2],"categories":[],"categories_nodes":[],"categories_segments":[],"categories_sizes":[],"default_left":[0,0,0,0,0,0,0,0,0,0,0,0,0],"id":8,"left_children":[1,3,5,7,-1,-1,-1,-1,9,-1,11,-1,-1],"loss_changes":[1.008454E12,6.683925E10,5.669467E10,3.5764675E9,0E0,0E0,0E0,0E0,1.29409304E8,0E0,8.093968E6,0E0,0E0],"parents":[2147483647,0,0,1,1,2,2,3,3,8,8,10,10],"right_children":[2,4,6,8,-1,-1,-1,-1,10,-1,12,-1,-1],"split_conditions":[1.955483E0,1.0360461E0,4.415386E0,-4.3150634E-2,1.08399E4,2.010935E4,5.3967918E4,-2.5278157E3,4.6149567E-2,-3.3580313E2,1.15811996E-1,3.1221457E2,9.449313E2],"split_indices":[0,0,0,0,0,0,0,0,0,0,0,0,0],"split_type":[0,0,0,0,0,0,0,0,0,0,0,0,0],"sum_hessian":[1E2,9.5E1,5E0,9.2E1,3E0,3E0,2E0,8.8E1,4E0,1E0,3E0,2E0,1E0],"tree_param":{"num_deleted":"0","num_feature":"4","num_nodes":"13","size_leaf_vector":"1"}},{"base_weights":[6.4280283E3,-1.6728299E4,3.7585794E5,-2.158057E4,1.0026907E4,1.8601146E4,5.037006E4,-2.2778746E4,4.0630874E3,-2.297859E3,-9.390417E2,-3.190125E2,6.673922E3,2.914E2,8.976844E2],"categories":[],"categories_nodes":[],"categories_segments":[],"categories_sizes":[],"default_left":[0,0,0,0,0,0,0,0,0,0,0,0,0,0,0],"id":9,"left_children":[1,3,5,7,-1,-1,-1,9,11,-1,-1,-1,13,-1,-1],"loss_changes":[8.703061E11,5.6663343E10,5.192876E10,2.9500375E9,0E0,0E0,0E0,2.234368E7,1.1597532E8,0E0,0E0,0E0,8.476704E6,0E0,0E0],"parents":[2147483647,0,0,1,1,2,2,3,3,7,7,8,8,12,12],"right_children":[2,4,6,8,-1,-1,-1,10,12,-1,-1,-1,14,-1,-1],"split_conditions":[1.955483E0,1.0360461E0,4.415386E0,-4.3150634E-2,1.0026907E4,1.8601146E4,5.037006E4,-2.0979264E-1,4.6149567E-2,-2.297859E3,-9.390417E2,-3.190125E2,1.15811996E-1,2.914E2,8.976844E2],"split_indices":[0,0,0,0,0,0,0,0,0,0,0,0,0,0,0],"split_type":[0,0,0,0,0,0,0,0,0,0,0,0,0,0,0],"sum_hessian":[1E2,9.5E1,5E0,9.2E1,3E0,3E0,2E0,8.8E1,4E0,8.6E1,2E0,1E0,3E0,2E0,1E0],"tree_param":{"num_deleted":"0","num_feature":"4","num_nodes":"15","size_leaf_vector":"1"}},{"base_weights":[6.5439375E3,-1.497569E4,3.4976734E5,-1.9447977E4,9.27489E3,2.0469312E4,5.3756918E4,-2.0537256E3,3.8307876E3,-3.030625E2,6.303797E3,2.7197293E2,8.528E2],"categories":[],"categories_nodes":[],"categories_segments":[],"categories_sizes":[],"default_left":[0,0,0,0,0,0,0,0,0,0,0,0,0],"id":10,"left_children":[1,3,5,7,-1,-1,-1,-1,9,-1,11,-1,-1],"loss_changes":[7.51228E11,4.8054194E10,5.3434515E10,2.4368865E9,0E0,0E0,0E0,0E0,1.03946136E8,0E0,8.692928E6,0E0,0E0],"parents":[2147483647,0,0,1,1,2,2,3,3,8,8,10,10],"right_children":[2,4,6,8,-1,-1,-1,-1,10,-1,12,-1,-1],"split_conditions":[1.955483E0,1.0360461E0,7.569262E0,-4.3150634E-2,9.27489E3,2.0469312E4,5.3756918E4,-2.0537256E3,4.6149567E-2,-3.030625E2,1.15811996E-1,2.7197293E2,8.528E2],"split_indices":[0,0,0,0,0,0,0,0,0,0,0,0,0],"split_type":[0,0,0,0,0,0,0,0,0,0,0,0,0],"sum_hessian":[1E2,9.5E1,5E0,9.2E1,3E0,4E0,1E0,8.8E1,4E0,1E0,3E0,2E0,1E0],"tree_param":{"num_deleted":"0","num_feature":"4","num_nodes":"13","size_leaf_vector":"1"}},{"base_weights":[6.7040835E3,-1.3394348E4,3.2716162E5,-1.7516434E4,8.579273E3,1.8831766E4,5.1069074E4,-1.8506613E4,3.61205E3,-1.8677043E3,-7.39525E2,-2.879094E2,5.9546094E3,2.5384167E2,8.1015936E2],"categories":[],"categories_nodes":[],"categories_segments":[],"categories_sizes":[],"default_left":[0,0,0,0,0,0,0,0,0,0,0,0,0,0,0],"id":11,"left_children":[1,3,5,7,-1,-1,-1,9,11,-1,-1,-1,13,-1,-1],"loss_changes":[6.548922E11,4.075312E10,5.6719376E10,2.0125E9,0E0,0E0,0E0,3.0418944E7,9.317333E7,0E0,0E0,0E0,8.772832E6,0E0,0E0],"parents":[2147483647,0,0,1,1,2,2,3,3,7,7,8,8,12,12],"right_children":[2,4,6,8,-1,-1,-1,10,12,-1,-1,-1,14,-1,-1],"split_conditions":[1.955483E0,1.0360461E0,7.569262E0,-4.3150634E-2,8.579273E3,1.8831766E4,5.1069074E4,-2.0979264E-1,4.6149567E-2,-1.8677043E3,-7.39525E2,-2.879094E2,1.15811996E-1,2.5384167E2,8.1015936E2],"split_indices":[0,0,0,0,0,0,0,0,0,0,0,0,0,0,0],"split_type":[0,0,0,0,0,0,0,0,0,0,0,0,0,0,0],"sum_hessian":[1E2,9.5E1,5E0,9.2E1,3E0,4E0,1E0,8.8E1,4E0,8.6E1,2E0,1E0,3E0,2E0,1E0],"tree_param":{"num_deleted":"0","num_feature":"4","num_nodes":"15","size_leaf_vector":"1"}},{"base_weights":[6.7925884E3,-1.032898E4,3.375925E5,-1.5784467E4,9.320886E3,1.7941254E4,4.851562E4,-1.6685232E4,3.4060625E3,-1.6830793E3,-6.902229E2,-2.7351407E2,5.6251484E3,2.3691875E2,7.6965155E2],"categories":[],"categories_nodes":[],"categories_segments":[],"categories_sizes":[],"default_left":[0,0,0,0,0,0,0,0,0,0,0,0,0,0,0],"id":12,"left_children":[1,3,5,7,-1,-1,-1,9,11,-1,-1,-1,13,-1,-1],"loss_changes":[5.755322E11,5.6261624E10,2.9664936E10,1.6644465E9,0E0,0E0,0E0,1.0565632E7,8.3524856E7,0E0,0E0,0E0,8.74268E6,0E0,0E0],"parents":[2147483647,0,0,1,1,2,2,3,3,7,7,8,8,12,12],"right_children":[2,4,6,8,-1,-1,-1,10,12,-1,-1,-1,14,-1,-1],"split_conditions":[2.2163975E0,1.0360461E0,7.569262E0,-4.3150634E-2,9.320886E3,1.7941254E4,4.851562E4,-2.0979264E-1,4.6149567E-2,-1.6830793E3,-6.902229E2,-2.7351407E2,1.15811996E-1,2.3691875E2,7.6965155E2],"split_indices":[0,0,0,0,0,0,0,0,0,0,0,0,0,0,0],"split_type":[0,0,0,0,0,0,0,0,0,0,0,0,0,0,0],"sum_hessian":[1E2,9.6E1,4E0,9.2E1,4E0,3E0,1E0,8.8E1,4E0,8.6E1,2E0,1E0,3E0,2E0,1E0],"tree_param":{"num_deleted":"0","num_feature":"4","num_nodes":"15","size_leaf_vector":"1"}},{"base_weights":[6.847377E3,-9.216888E3,3.1712462E5,-1.4223644E4,8.575216E3,1.659566E4,4.608984E4,-1.5043361E4,3.2120688E3,-1.5115037E3,-4.3680157E2,-2.5983908E2,5.3142812E3,2.21125E2,7.3116876E2],"categories":[],"categories_nodes":[],"categories_segments":[],"categories_sizes":[],"default_left":[0,0,0,0,0,0,0,0,0,0,0,0,0,0,0],"id":13,"left_children":[1,3,5,7,-1,-1,-1,9,11,-1,-1,-1,13,-1,-1],"loss_changes":[5.0634487E11,4.7341933E10,3.2180797E10,1.3775114E9,0E0,0E0,0E0,2.072576E6,7.488269E7,0E0,0E0,0E0,8.624088E6,0E0,0E0],"parents":[2147483647,0,0,1,1,2,2,3,3,7,7,8,8,12,12],"right_children":[2,4,6,8,-1,-1,-1,10,12,-1,-1,-1,14,-1,-1],"split_conditions":[2.2163975E0,1.0360461E0,7.569262E0,-4.3150634E-2,8.575216E3,1.659566E4,4.608984E4,-1.3327093E-1,4.6149567E-2,-1.5115037E3,-4.3680157E2,-2.5983908E2,1.15811996E-1,2.21125E2,7.3116876E2],"split_indices":[0,0,0,0,0,0,0,0,0,0,0,0,0,0,0],"split_type":[0,0,0,0,0,0,0,0,0,0,0,0,0,0,0],"sum_hessian":[1E2,9.6E1,4E0,9.2E1,4E0,3E0,1E0,8.8E1,4E0,8.7E1,1E0,1E0,3E0,2E0,1E0],"tree_param":{"num_deleted":"0","num_feature":"4","num_nodes":"15","size_leaf_vector":"1"}},{"base_weights":[6.8557534E3,-8.219744E3,2.9794925E5,-1.2814786E4,7.8891987E3,1.5350984E4,4.3785344E4,-1.3465098E4,5.0209297E3,-1.3672919E3,-5.578719E2,2.0638333E2,6.9461096E2],"categories":[],"categories_nodes":[],"categories_segments":[],"categories_sizes":[],"default_left":[0,0,0,0,0,0,0,0,0,0,0,0,0],"id":14,"left_children":[1,3,5,7,-1,-1,-1,9,11,-1,-1,-1,-1],"loss_changes":[4.4567537E11,3.9838343E10,3.3823588E10,1.1462932E9,0E0,0E0,0E0,7.122944E7,8.43616E6,0E0,0E0,0E0,0E0],"parents":[2147483647,0,0,1,1,2,2,3,3,7,7,8,8],"right_children":[2,4,6,8,-1,-1,-1,10,12,-1,-1,-1,-1],"split_conditions":[2.2163975E0,1.0360461E0,7.569262E0,4.6149567E-2,7.8891987E3,1.5350984E4,4.3785344E4,-2.0979264E-1,1.15811996E-1,-1.3672919E3,-5.578719E2,2.0638333E2,6.9461096E2],"split_indices":[0,0,0,0,0,0,0,0,0,0,0,0,0],"split_type":[0,0,0,0,0,0,0,0,0,0,0,0,0],"sum_hessian":[1E2,9.6E1,4E0,9.2E1,4E0,3E0,1E0,8.9E1,3E0,8.6E1,3E0,2E0,1E0],"tree_param":{"num_deleted":"0","num_feature":"4","num_nodes":"13","size_leaf_vector":"1"}},{"base_weights":[6.8236475E3,-7.327005E3,2.7998156E5,-1.154433E4,7.258064E3,1.4199659E4,4.1596074E4,-1.2139989E4,4.744086E3,-1.2227191E3,-2.1895312E2,1.92625E2,6.598797E2],"categories":[],"categories_nodes":[],"categories_segments":[],"categories_sizes":[],"default_left":[0,0,0,0,0,0,0,0,0,0,0,0,0],"id":15,"left_children":[1,3,5,7,-1,-1,-1,9,11,-1,-1,-1,-1],"loss_changes":[3.924531E11,3.352655E10,3.475043E10,9.599109E8,0E0,0E0,0E0,5.131981E7,8.194152E6,0E0,0E0,0E0,0E0],"parents":[2147483647,0,0,1,1,2,2,3,3,7,7,8,8],"right_children":[2,4,6,8,-1,-1,-1,10,12,-1,-1,-1,-1],"split_conditions":[2.2163975E0,1.0360461E0,7.569262E0,4.6149567E-2,7.258064E3,1.4199659E4,4.1596074E4,-4.3150634E-2,1.15811996E-1,-1.2227191E3,-2.1895312E2,1.92625E2,6.598797E2],"split_indices":[0,0,0,0,0,0,0,0,0,0,0,0,0],"split_type":[0,0,0,0,0,0,0,0,0,0,0,0,0],"sum_hessian":[1E2,9.6E1,4E0,9.2E1,4E0,3E0,1E0,8.9E1,3E0,8.8E1,1E0,2E0,1E0],"tree_param":{"num_deleted":"0","num_feature":"4","num_nodes":"13","size_leaf_vector":"1"}},{"base_weights":[6.7597437E3,-6.5255527E3,2.6314256E5,-1.0396231E4,6.677419E3,1.3134685E4,3.951627E4,-1.0942009E4,4.4828047E3,-1.1112689E3,-4.494211E2,1.7978334E2,6.268859E2],"categories":[],"categories_nodes":[],"categories_segments":[],"categories_sizes":[],"default_left":[0,0,0,0,0,0,0,0,0,0,0,0,0],"id":16,"left_children":[1,3,5,7,-1,-1,-1,9,11,-1,-1,-1,-1],"loss_changes":[3.4573543E11,2.8215017E10,3.5095052E10,8.042701E8,0E0,0E0,0E0,4.9101824E7,7.911656E6,0E0,0E0,0E0,0E0],"parents":[2147483647,0,0,1,1,2,2,3,3,7,7,8,8],"right_children":[2,4,6,8,-1,-1,-1,10,12,-1,-1,-1,-1],"split_conditions":[2.2163975E0,1.0360461E0,7.569262E0,4.6149567E-2,6.677419E3,1.3134685E4,3.951627E4,-2.0979264E-1,1.15811996E-1,-1.1112689E3,-4.494211E2,1.7978334E2,6.268859E2],"split_indices":[0,0,0,0,0,0,0,0,0,0,0,0,0],"split_type":[0,0,0,0,0,0,0,0,0,0,0,0,0],"sum_hessian":[1E2,9.6E1,4E0,9.2E1,4E0,3E0,1E0,8.9E1,3E0,8.6E1,3E0,2E0,1E0],"tree_param":{"num_deleted":"0","num_feature":"4","num_nodes":"13","size_leaf_vector":"1"}},{"base_weights":[6.6637236E3,-2.9946758E3,3.2316967E4,-9.364705E3,8.206352E4,-9.865138E3,4.2361953E3,1.9741719E3,8.916021E3,-1.0014181E3,-4.1571564E2,1.6779791E2,5.955422E2],"categories":[],"categories_nodes":[],"categories_segments":[],"categories_sizes":[],"default_left":[0,0,0,0,0,0,0,0,0,0,0,0,0],"id":17,"left_children":[1,3,-1,5,7,9,11,-1,-1,-1,-1,-1,-1],"loss_changes":[3.0971884E11,5.4409003E10,0E0,6.7477914E8,1.3357752E9,3.493581E7,7.599536E6,0E0,0E0,0E0,0E0,0E0,0E0],"parents":[2147483647,0,0,1,1,3,3,4,4,5,5,6,6],"right_children":[2,4,-1,6,8,10,12,-1,-1,-1,-1,-1,-1],"split_conditions":[4.415386E0,1.0360461E0,3.2316967E4,4.6149567E-2,1.1831E0,-2.0979264E-1,1.15811996E-1,1.9741719E3,8.916021E3,-1.0014181E3,-4.1571564E2,1.6779791E2,5.955422E2],"split_indices":[0,0,0,0,0,0,0,0,0,0,0,0,0],"split_type":[0,0,0,0,0,0,0,0,0,0,0,0,0],"sum_hessian":[1E2,9.8E1,2E0,9.2E1,6E0,8.9E1,3E0,1E0,5E0,8.6E1,3E0,2E0,1E0],"tree_param":{"num_deleted":"0","num_feature":"4","num_nodes":"13","size_leaf_vector":"1"}},{"base_weights":[6.4186616E3,-2.5918198E3,3.01625E5,-8.435275E3,7.541293E4,9.319144E3,3.5924605E4,-8.894381E3,4.0034062E3,1.8754625E3,8.173021E3,-8.994839E2,-2.9828232E2,1.5661041E2,5.657656E2],"categories":[],"categories_nodes":[],"categories_segments":[],"categories_sizes":[],"default_left":[0,0,0,0,0,0,0,0,0,0,0,0,0,0,0],"id":18,"left_children":[1,3,5,7,9,-1,-1,11,13,-1,-1,-1,-1,-1,-1],"loss_changes":[2.6943685E11,4.5762044E10,2.5518408E9,5.666995E8,9.726648E8,0E0,0E0,2.6617856E7,7.267144E6,0E0,0E0,0E0,0E0,0E0,0E0],"parents":[2147483647,0,0,1,1,2,2,3,3,4,4,7,7,8,8],"right_children":[2,4,6,8,10,-1,-1,12,14,-1,-1,-1,-1,-1,-1],"split_conditions":[4.415386E0,1.0360461E0,7.569262E0,4.6149567E-2,1.1831E0,9.319144E3,3.5924605E4,-1.3327093E-1,1.15811996E-1,1.8754625E3,8.173021E3,-8.994839E2,-2.9828232E2,1.5661041E2,5.657656E2],"split_indices":[0,0,0,0,0,0,0,0,0,0,0,0,0,0,0],"split_type":[0,0,0,0,0,0,0,0,0,0,0,0,0,0,0],"sum_hessian":[1E2,9.8E1,2E0,9.2E1,6E0,1E0,1E0,8.9E1,3E0,1E0,5E0,8.7E1,2E0,2E0,1E0],"tree_param":{"num_deleted":"0","num_feature":"4","num_nodes":"15","size_leaf_vector":"1"}},{"base_weights":[6.3195244E3,-2.2359524E3,2.8654375E5,-7.5968745E3,6.930715E4,8.8531875E3,3.4128375E4,-8.018266E3,3.7836484E3,1.7816907E3,7.4919375E3,-8.074688E2,-1.4983438E2,1.4616875E2,5.3747656E2],"categories":[],"categories_nodes":[],"categories_segments":[],"categories_sizes":[],"default_left":[0,0,0,0,0,0,0,0,0,0,0,0,0,0,0],"id":19,"left_children":[1,3,5,7,9,-1,-1,11,13,-1,-1,-1,-1,-1,-1],"loss_changes":[2.4278334E11,3.8496686E10,2.303017E9,4.7633357E8,6.879908E8,0E0,0E0,2.100992E7,6.921824E6,0E0,0E0,0E0,0E0,0E0,0E0],"parents":[2147483647,0,0,1,1,2,2,3,3,4,4,7,7,8,8],"right_children":[2,4,6,8,10,-1,-1,12,14,-1,-1,-1,-1,-1,-1],"split_conditions":[4.415386E0,1.0360461E0,7.569262E0,4.6149567E-2,1.1831E0,8.8531875E3,3.4128375E4,-4.3150634E-2,1.15811996E-1,1.7816907E3,7.4919375E3,-8.074688E2,-1.4983438E2,1.4616875E2,5.3747656E2],"split_indices":[0,0,0,0,0,0,0,0,0,0,0,0,0,0,0],"split_type":[0,0,0,0,0,0,0,0,0,0,0,0,0,0,0],"sum_hessian":[1E2,9.8E1,2E0,9.2E1,6E0,1E0,1E0,8.9E1,3E0,1E0,5E0,8.8E1,1E0,2E0,1E0],"tree_param":{"num_deleted":"0","num_feature":"4","num_nodes":"15","size_leaf_vector":"1"}},{"base_weights":[6.20224E3,-1.9214479E3,2.7221653E5,-6.8401294E3,6.3701242E4,8.410525E3,3.2421957E4,-7.227076E3,3.5762031E3,1.6926063E3,6.8676094E3,-7.336968E2,-3.0301642E2,1.36425E2,5.1060312E2],"categories":[],"categories_nodes":[],"categories_segments":[],"categories_sizes":[],"default_left":[0,0,0,0,0,0,0,0,0,0,0,0,0,0,0],"id":20,"left_children":[1,3,5,7,9,-1,-1,11,13,-1,-1,-1,-1,-1,-1],"loss_changes":[2.187858E11,3.2390658E10,2.078507E9,4.0068813E8,4.6648115E8,0E0,0E0,1.92768E7,6.569732E6,0E0,0E0,0E0,0E0,0E0,0E0],"parents":[2147483647,0,0,1,1,2,2,3,3,4,4,7,7,8,8],"right_children":[2,4,6,8,10,-1,-1,12,14,-1,-1,-1,-1,-1,-1],"split_conditions":[4.415386E0,1.0360461E0,7.569262E0,4.6149567E-2,1.1831E0,8.410525E3,3.2421957E4,-2.0979264E-1,1.15811996E-1,1.6926063E3,6.8676094E3,-7.336968E2,-3.0301642E2,1.36425E2,5.1060312E2],"split_indices":[0,0,0,0,0,0,0,0,0,0,0,0,0,0,0],"split_type":[0,0,0,0,0,0,0,0,0,0,0,0,0,0,0],"sum_hessian":[1E2,9.8E1,2E0,9.2E1,6E0,1E0,1E0,8.9E1,3E0,1E0,5E0,8.6E1,3E0,2E0,1E0],"tree_param":{"num_deleted":"0","num_feature":"4","num_nodes":"15","size_leaf_vector":"1"}},{"base_weights":[6.067186E3,-1.6467812E3,2.586057E5,-6.160315E3,5.8553992E4,7.99E3,3.0800857E4,-6.515896E3,3.380336E3,2.4897979E3,6.7036797E3,-6.611713E2,-2.8028906E2,1.2732916E2,4.8507346E2],"categories":[],"categories_nodes":[],"categories_segments":[],"categories_sizes":[],"default_left":[0,0,0,0,0,0,0,0,0,0,0,0,0,0,0],"id":21,"left_children":[1,3,5,7,9,-1,-1,11,13,-1,-1,-1,-1,-1,-1],"loss_changes":[1.9718133E11,2.7260815E10,1.8758369E9,3.3752627E8,3.2940032E8,0E0,0E0,1.348736E7,6.21638E6,0E0,0E0,0E0,0E0,0E0,0E0],"parents":[2147483647,0,0,1,1,2,2,3,3,4,4,7,7,8,8],"right_children":[2,4,6,8,10,-1,-1,12,14,-1,-1,-1,-1,-1,-1],"split_conditions":[4.415386E0,1.0360461E0,7.569262E0,4.6149567E-2,1.2292256E0,7.99E3,3.0800857E4,-2.0979264E-1,1.15811996E-1,2.4897979E3,6.7036797E3,-6.611713E2,-2.8028906E2,1.2732916E2,4.8507346E2],"split_indices":[0,0,0,0,0,0,0,0,0,0,0,0,0,0,0],"split_type":[0,0,0,0,0,0,0,0,0,0,0,0,0,0,0],"sum_hessian":[1E2,9.8E1,2E0,9.2E1,6E0,1E0,1E0,8.9E1,3E0,2E0,4E0,8.6E1,3E0,2E0,1E0],"tree_param":{"num_deleted":"0","num_feature":"4","num_nodes":"15","size_leaf_vector":"1"}},{"base_weights":[5.9322876E3,-1.3925776E3,2.4567542E5,-5.547836E3,5.4011938E4,7.5905E3,2.9260812E4,-5.8747817E3,3.1953984E3,1.4834844E3,5.806898E3,-5.9153577E2,-1.1317657E2,1.1883959E2,4.608203E2],"categories":[],"categories_nodes":[],"categories_segments":[],"categories_sizes":[],"default_left":[0,0,0,0,0,0,0,0,0,0,0,0,0,0,0],"id":22,"left_children":[1,3,5,7,9,-1,-1,11,13,-1,-1,-1,-1,-1,-1],"loss_changes":[1.7770683E11,2.3091436E10,1.6929423E9,2.8461824E8,2.5116058E8,0E0,0E0,1.0626048E7,5.865644E6,0E0,0E0,0E0,0E0,0E0,0E0],"parents":[2147483647,0,0,1,1,2,2,3,3,4,4,7,7,8,8],"right_children":[2,4,6,8,10,-1,-1,12,14,-1,-1,-1,-1,-1,-1],"split_conditions":[4.415386E0,1.0360461E0,7.569262E0,4.6149567E-2,1.1831E0,7.5905E3,2.9260812E4,-4.3150634E-2,1.15811996E-1,1.4834844E3,5.806898E3,-5.9153577E2,-1.1317657E2,1.1883959E2,4.608203E2],"split_indices":[0,0,0,0,0,0,0,0,0,0,0,0,0,0,0],"split_type":[0,0,0,0,0,0,0,0,0,0,0,0,0,0,0],"sum_hessian":[1E2,9.8E1,2E0,9.2E1,6E0,1E0,1E0,8.9E1,3E0,1E0,5E0,8.8E1,1E0,2E0,1E0],"tree_param":{"num_deleted":"0","num_feature":"4","num_nodes":"15","size_leaf_vector":"1"}},{"base_weights":[5.774865E3,-1.1809457E3,2.3339167E5,-4.9944014E3,4.9652242E4,7.210975E3,2.7797775E4,-5.2951377E3,3.0207734E3,2.5817283E3,6.107414E3,-5.3734247E2,-2.2686172E2,4.5201565E1,3.7263544E2],"categories":[],"categories_nodes":[],"categories_segments":[],"categories_sizes":[],"default_left":[0,0,0,0,0,0,0,0,0,0,0,0,0,0,0],"id":23,"left_children":[1,3,5,7,9,-1,-1,11,13,-1,-1,-1,-1,-1,-1],"loss_changes":[1.6018483E11,1.9439145E10,1.5278735E9,2.4016768E8,3.289129E8,0E0,0E0,9.133824E6,5.565496E6,0E0,0E0,0E0,0E0,0E0,0E0],"parents":[2147483647,0,0,1,1,2,2,3,3,4,4,7,7,8,8],"right_children":[2,4,6,8,10,-1,-1,12,14,-1,-1,-1,-1,-1,-1],"split_conditions":[4.415386E0,1.0360461E0,7.569262E0,4.6149567E-2,1.955483E0,7.210975E3,2.7797775E4,-2.0979264E-1,5.5643562E-2,2.5817283E3,6.107414E3,-5.3734247E2,-2.2686172E2,4.5201565E1,3.7263544E2],"split_indices":[0,0,0,0,0,0,0,0,0,0,0,0,0,0,0],"split_type":[0,0,0,0,0,0,0,0,0,0,0,0,0,0,0],"sum_hessian":[1E2,9.8E1,2E0,9.2E1,6E0,1E0,1E0,8.9E1,3E0,3E0,3E0,8.6E1,3E0,1E0,2E0],"tree_param":{"num_deleted":"0","num_feature":"4","num_nodes":"15","size_leaf_vector":"1"}},{"base_weights":[5.626602E3,-9.785802E2,2.2172208E5,-4.4986836E3,4.5928305E4,6.8504253E3,2.6407889E4,-4.774114E3,2.823164E3,1.9086813E3,5.284754E3,-4.8061432E2,-9.617344E1,9.6989586E1,4.1914844E2],"categories":[],"categories_nodes":[],"categories_segments":[],"categories_sizes":[],"default_left":[0,0,0,0,0,0,0,0,0,0,0,0,0,0,0],"id":24,"left_children":[1,3,5,7,9,-1,-1,11,13,-1,-1,-1,-1,-1,-1],"loss_changes":[1.4437933E11,1.6553208E10,1.3789102E9,2.0102707E8,2.913659E8,0E0,0E0,6.367616E6,6.078154E6,0E0,0E0,0E0,0E0,0E0,0E0],"parents":[2147483647,0,0,1,1,2,2,3,3,4,4,7,7,8,8],"right_children":[2,4,6,8,10,-1,-1,12,14,-1,-1,-1,-1,-1,-1],"split_conditions":[4.415386E0,1.0360461E0,7.569262E0,4.6149567E-2,1.2292256E0,6.8504253E3,2.6407889E4,-4.3150634E-2,1.15811996E-1,1.9086813E3,5.284754E3,-4.8061432E2,-9.617344E1,9.6989586E1,4.1914844E2],"split_indices":[0,0,0,0,0,0,0,0,0,0,0,0,0,0,0],"split_type":[0,0,0,0,0,0,0,0,0,0,0,0,0,0,0],"sum_hessian":[1E2,9.8E1,2E0,9.2E1,6E0,1E0,1E0,8.9E1,3E0,2E0,4E0,8.8E1,1E0,2E0,1E0],"tree_param":{"num_deleted":"0","num_feature":"4","num_nodes":"15","size_leaf_vector":"1"}},{"base_weights":[5.463864E3,-8.086644E2,2.10636E5,-4.0494573E3,4.2363105E4,6.5079062E3,2.5087494E4,-4.3031006E3,2.669875E3,2.1605437E3,5.253E3,-4.3671567E2,-1.8341016E2,9.052292E1,3.9819064E2],"categories":[],"categories_nodes":[],"categories_segments":[],"categories_sizes":[],"default_left":[0,0,0,0,0,0,0,0,0,0,0,0,0,0,0],"id":25,"left_children":[1,3,5,7,9,-1,-1,11,13,-1,-1,-1,-1,-1,-1],"loss_changes":[1.3015208E11,1.4022713E10,1.2444631E9,1.6998976E8,3.4235392E8,0E0,0E0,6.224E6,5.656542E6,0E0,0E0,0E0,0E0,0E0,0E0],"parents":[2147483647,0,0,1,1,2,2,3,3,4,4,7,7,8,8],"right_children":[2,4,6,8,10,-1,-1,12,14,-1,-1,-1,-1,-1,-1],"split_conditions":[4.415386E0,1.0360461E0,7.569262E0,4.6149567E-2,1.955483E0,6.5079062E3,2.5087494E4,-2.0979264E-1,1.15811996E-1,2.1605437E3,5.253E3,-4.3671567E2,-1.8341016E2,9.052292E1,3.9819064E2],"split_indices":[0,0,0,0,0,0,0,0,0,0,0,0,0,0,0],"split_type":[0,0,0,0,0,0,0,0,0,0,0,0,0,0,0],"sum_hessian":[1E2,9.8E1,2E0,9.2E1,6E0,1E0,1E0,8.9E1,3E0,3E0,3E0,8.6E1,3E0,2E0,1E0],"tree_param":{"num_deleted":"0","num_feature":"4","num_nodes":"15","size_leaf_vector":"1"}},{"base_weights":[5.3024053E3,-6.5423926E2,2.001042E5,-3.645922E3,3.9185867E4,6.1825127E3,2.383312E4,-3.8796777E3,2.5250625E3,1.9985016E3,4.859025E3,-3.9354575E2,-1.696547E2,8.44875E1,3.7828125E2],"categories":[],"categories_nodes":[],"categories_segments":[],"categories_sizes":[],"default_left":[0,0,0,0,0,0,0,0,0,0,0,0,0,0,0],"id":26,"left_children":[1,3,5,7,9,-1,-1,11,13,-1,-1,-1,-1,-1,-1],"loss_changes":[1.173278E11,1.1942574E10,1.123115E9,1.4394918E8,2.9292954E8,0E0,0E0,4.283008E6,5.25702E6,0E0,0E0,0E0,0E0,0E0,0E0],"parents":[2147483647,0,0,1,1,2,2,3,3,4,4,7,7,8,8],"right_children":[2,4,6,8,10,-1,-1,12,14,-1,-1,-1,-1,-1,-1],"split_conditions":[4.415386E0,1.0360461E0,7.569262E0,4.6149567E-2,1.955483E0,6.1825127E3,2.383312E4,-2.0979264E-1,1.15811996E-1,1.9985016E3,4.859025E3,-3.9354575E2,-1.696547E2,8.44875E1,3.7828125E2],"split_indices":[0,0,0,0,0,0,0,0,0,0,0,0,0,0,0],"split_type":[0,0,0,0,0,0,0,0,0,0,0,0,0,0,0],"sum_hessian":[1E2,9.8E1,2E0,9.2E1,6E0,1E0,1E0,8.9E1,3E0,3E0,3E0,8.6E1,3E0,2E0,1E0],"tree_param":{"num_deleted":"0","num_feature":"4","num_nodes":"15","size_leaf_vector":"1"}},{"base_weights":[5.1362393E3,-5.2057385E2,1.90099E5,-3.2824233E3,3.6246938E4,5.8733877E3,2.2641463E4,-3.4979817E3,2.3882422E3,1.8486141E3,4.4946E3,-3.5207205E2,-7.371094E1,7.885417E1,3.593672E2],"categories":[],"categories_nodes":[],"categories_segments":[],"categories_sizes":[],"default_left":[0,0,0,0,0,0,0,0,0,0,0,0,0,0,0],"id":27,"left_children":[1,3,5,7,9,-1,-1,11,13,-1,-1,-1,-1,-1,-1],"loss_changes":[1.05775235E11,1.0172065E10,1.01361254E9,1.2203347E8,2.5063834E8,0E0,0E0,3.055104E6,4.879548E6,0E0,0E0,0E0,0E0,0E0,0E0],"parents":[2147483647,0,0,1,1,2,2,3,3,4,4,7,7,8,8],"right_children":[2,4,6,8,10,-1,-1,12,14,-1,-1,-1,-1,-1,-1],"split_conditions":[4.415386E0,1.0360461E0,7.569262E0,4.6149567E-2,1.955483E0,5.8733877E3,2.2641463E4,-4.3150634E-2,1.15811996E-1,1.8486141E3,4.4946E3,-3.5207205E2,-7.371094E1,7.885417E1,3.593672E2],"split_indices":[0,0,0,0,0,0,0,0,0,0,0,0,0,0,0],"split_type":[0,0,0,0,0,0,0,0,0,0,0,0,0,0,0],"sum_hessian":[1E2,9.8E1,2E0,9.2E1,6E0,1E0,1E0,8.9E1,3E0,3E0,3E0,8.8E1,1E0,2E0,1E0],"tree_param":{"num_deleted":"0","num_feature":"4","num_nodes":"15","size_leaf_vector":"1"}},{"base_weights":[4.9678584E3,-4.0432733E2,1.8059405E5,-2.9540562E3,3.3528402E4,5.5797188E3,2.1509389E4,-3.1529236E3,2.2589766E3,1.7099672E3,4.1575034E3,-3.1984338E2,-1.3748438E2,7.359792E1,3.4139844E2],"categories":[],"categories_nodes":[],"categories_segments":[],"categories_sizes":[],"default_left":[0,0,0,0,0,0,0,0,0,0,0,0,0,0,0],"id":28,"left_children":[1,3,5,7,9,-1,-1,11,13,-1,-1,-1,-1,-1,-1],"loss_changes":[9.536617E10,8.664451E9,9.1477606E8,1.0353574E8,2.1445171E8,0E0,0E0,2.885568E6,4.523674E6,0E0,0E0,0E0,0E0,0E0,0E0],"parents":[2147483647,0,0,1,1,2,2,3,3,4,4,7,7,8,8],"right_children":[2,4,6,8,10,-1,-1,12,14,-1,-1,-1,-1,-1,-1],"split_conditions":[4.415386E0,1.0360461E0,7.569262E0,4.6149567E-2,1.955483E0,5.5797188E3,2.1509389E4,-2.0979264E-1,1.15811996E-1,1.7099672E3,4.1575034E3,-3.1984338E2,-1.3748438E2,7.359792E1,3.4139844E2],"split_indices":[0,0,0,0,0,0,0,0,0,0,0,0,0,0,0],"split_type":[0,0,0,0,0,0,0,0,0,0,0,0,0,0,0],"sum_hessian":[1E2,9.8E1,2E0,9.2E1,6E0,1E0,1E0,8.9E1,3E0,3E0,3E0,8.6E1,3E0,2E0,1E0],"tree_param":{"num_deleted":"0","num_feature":"4","num_nodes":"15","size_leaf_vector":"1"}},{"base_weights":[4.7969575E3,-3.0505334E2,1.7156433E5,-2.6591052E3,3.1013785E4,5.3007314E3,2.043392E4,-2.8427122E3,2.1368281E3,1.5817219E3,3.8456907E3,-2.8822665E2,-1.2717266E2,6.869167E2,3.2432812E2,2.171875E1,8.131875E1],"categories":[],"categories_nodes":[],"categories_segments":[],"categories_sizes":[],"default_left":[0,0,0,0,0,0,0,0,0,0,0,0,0,0,0,0,0],"id":29,"left_children":[1,3,5,7,9,-1,-1,11,13,-1,-1,-1,-1,15,-1,-1,-1],"loss_changes":[8.598808E10,7.3813596E9,8.2559795E8,8.79671E7,1.83488E8,0E0,0E0,1.927104E6,4.189172E6,0E0,0E0,0E0,0E0,1.32525E3,0E0,0E0,0E0],"parents":[2147483647,0,0,1,1,2,2,3,3,4,4,7,7,8,8,13,13],"right_children":[2,4,6,8,10,-1,-1,12,14,-1,-1,-1,-1,16,-1,-1,-1],"split_conditions":[4.415386E0,1.0360461E0,7.569262E0,4.6149567E-2,1.955483E0,5.3007314E3,2.043392E4,-2.0979264E-1,1.15811996E-1,1.5817219E3,3.8456907E3,-2.8822665E2,-1.2717266E2,5.5643562E-2,3.2432812E2,2.171875E1,8.131875E1],"split_indices":[0,0,0,0,0,0,0,0,0,0,0,0,0,0,0,0,0],"split_type":[0,0,0,0,0,0,0,0,0,0,0,0,0,0,0,0,0],"sum_hessian":[1E2,9.8E1,2E0,9.2E1,6E0,1E0,1E0,8.9E1,3E0,3E0,3E0,8.6E1,3E0,2E0,1E0,1E0,1E0],"tree_param":{"num_deleted":"0","num_feature":"4","num_nodes":"17","size_leaf_vector":"1"}},{"base_weights":[4.6259087E3,-2.1961206E2,1.6298612E5,-2.393073E3,2.868774E4,5.035694E3,1.9412225E4,-2.5630635E3,2.0299844E3,1.4630907E3,3.5572642E3,-2.5790997E2,-5.6792187E1,6.5257294E2,3.0811093E2,2.0632812E1,7.725313E1],"categories":[],"categories_nodes":[],"categories_segments":[],"categories_sizes":[],"default_left":[0,0,0,0,0,0,0,0,0,0,0,0,0,0,0,0,0],"id":30,"left_children":[1,3,5,7,9,-1,-1,11,13,-1,-1,-1,-1,15,-1,-1,-1],"loss_changes":[7.75369E10,6.2887224E9,7.4511155E8,7.512765E7,1.5699968E8,0E0,0E0,1.414784E6,3.780678E6,0E0,0E0,0E0,0E0,1.1975E3,0E0,0E0,0E0],"parents":[2147483647,0,0,1,1,2,2,3,3,4,4,7,7,8,8,13,13],"right_children":[2,4,6,8,10,-1,-1,12,14,-1,-1,-1,-1,16,-1,-1,-1],"split_conditions":[4.415386E0,1.0360461E0,7.569262E0,4.6149567E-2,1.955483E0,5.035694E3,1.9412225E4,-4.3150634E-2,1.15811996E-1,1.4630907E3,3.5572642E3,-2.5790997E2,-5.6792187E1,5.5643562E-2,3.0811093E2,2.0632812E1,7.725313E1],"split_indices":[0,0,0,0,0,0,0,0,0,0,0,0,0,0,0,0,0],"split_type":[0,0,0,0,0,0,0,0,0,0,0,0,0,0,0,0,0],"sum_hessian":[1E2,9.8E1,2E0,9.2E1,6E0,1E0,1E0,8.9E1,3E0,3E0,3E0,8.8E1,1E0,2E0,1E0,1E0,1E0],"tree_param":{"num_deleted":"0","num_feature":"4","num_nodes":"17","size_leaf_vector":"1"}},{"base_weights":[4.455984E3,-1.460202E2,1.548368E5,-2.1527876E3,2.6536178E4,4.7839062E3,1.8441613E4,-2.3102576E3,1.9284844E3,1.0639396E3,3.0767012E3,-2.3424187E2,-1.0331875E2,6.1994794E2,2.9270468E2,1.9601562E1,7.3390625E1],"categories":[],"categories_nodes":[],"categories_segments":[],"categories_sizes":[],"default_left":[0,0,0,0,0,0,0,0,0,0,0,0,0,0,0,0,0],"id":31,"left_children":[1,3,5,7,9,-1,-1,11,13,-1,-1,-1,-1,15,-1,-1,-1],"loss_changes":[6.991997E10,5.3580785E9,6.724731E8,6.422432E7,1.434542E8,0E0,0E0,1.276384E6,3.412004E6,0E0,0E0,0E0,0E0,1.07475E3,0E0,0E0,0E0],"parents":[2147483647,0,0,1,1,2,2,3,3,4,4,7,7,8,8,13,13],"right_children":[2,4,6,8,10,-1,-1,12,14,-1,-1,-1,-1,16,-1,-1,-1],"split_conditions":[4.415386E0,1.0360461E0,7.569262E0,4.6149567E-2,1.2292256E0,4.7839062E3,1.8441613E4,-2.0979264E-1,1.15811996E-1,1.0639396E3,3.0767012E3,-2.3424187E2,-1.0331875E2,5.5643562E-2,2.9270468E2,1.9601562E1,7.3390625E1],"split_indices":[0,0,0,0,0,0,0,0,0,0,0,0,0,0,0,0,0],"split_type":[0,0,0,0,0,0,0,0,0,0,0,0,0,0,0,0,0],"sum_hessian":[1E2,9.8E1,2E0,9.2E1,6E0,1E0,1E0,8.9E1,3E0,2E0,4E0,8.6E1,3E0,2E0,1E0,1E0,1E0],"tree_param":{"num_deleted":"0","num_feature":"4","num_nodes":"17","size_leaf_vector":"1"}},{"base_weights":[4.2818213E3,-8.910006E1,1.4709495E5,-1.9369843E3,2.447409E4,4.5447124E3,1.7519531E4,-2.082975E3,1.8320547E3,1.223247E3,3.0597188E3,-2.104064E2,-7.700417E1,5.8894794E2,2.7806876E2,1.8621876E1,6.9720314E1],"categories":[],"categories_nodes":[],"categories_segments":[],"categories_sizes":[],"default_left":[0,0,0,0,0,0,0,0,0,0,0,0,0,0,0,0,0],"id":32,"left_children":[1,3,5,7,9,-1,-1,11,13,-1,-1,-1,-1,15,-1,-1,-1],"loss_changes":[6.3059837E10,4.5410084E9,6.068961E8,5.498893E7,1.5041766E8,0E0,0E0,8.71712E5,3.079327E6,0E0,0E0,0E0,0E0,9.603125E2,0E0,0E0,0E0],"parents":[2147483647,0,0,1,1,2,2,3,3,4,4,7,7,8,8,13,13],"right_children":[2,4,6,8,10,-1,-1,12,14,-1,-1,-1,-1,16,-1,-1,-1],"split_conditions":[4.415386E0,1.0360461E0,7.569262E0,4.6149567E-2,1.955483E0,4.5447124E3,1.7519531E4,-1.3327093E-1,1.15811996E-1,1.223247E3,3.0597188E3,-2.104064E2,-7.700417E1,5.5643562E-2,2.7806876E2,1.8621876E1,6.9720314E1],"split_indices":[0,0,0,0,0,0,0,0,0,0,0,0,0,0,0,0,0],"split_type":[0,0,0,0,0,0,0,0,0,0,0,0,0,0,0,0,0],"sum_hessian":[1E2,9.8E1,2E0,9.2E1,6E0,1E0,1E0,8.9E1,3E0,3E0,3E0,8.7E1,2E0,2E0,1E0,1E0,1E0],"tree_param":{"num_deleted":"0","num_feature":"4","num_nodes":"17","size_leaf_vector":"1"}},{"base_weights":[4.115285E3,-3.6129734E1,1.397402E5,-1.6106433E3,2.4637273E3,4.317475E3,1.6643557E4,-1.8188033E3,5.3098126E2,-1.8778712E3,5.595E2,-1.9028735E2,-8.646016E1,1.7690626E1,6.6234375E1],"categories":[],"categories_nodes":[],"categories_segments":[],"categories_sizes":[],"default_left":[0,0,0,0,0,0,0,0,0,0,0,0,0,0,0],"id":33,"left_children":[1,3,5,7,-1,-1,-1,9,-1,11,13,-1,-1,-1,-1],"loss_changes":[5.6871612E10,3.8856937E9,5.477376E8,1.4507037E8,0E0,0E0,0E0,1.3974944E7,0E0,6.3488E5,8.69375E2,0E0,0E0,0E0,0E0],"parents":[2147483647,0,0,1,1,2,2,3,3,7,7,9,9,10,10],"right_children":[2,4,6,8,-1,-1,-1,10,-1,12,14,-1,-1,-1,-1],"split_conditions":[4.415386E0,1.1831E0,7.569262E0,1.15811996E-1,2.4637273E3,4.317475E3,1.6643557E4,4.6149567E-2,5.3098126E2,-2.0979264E-1,5.5643562E-2,-1.9028735E2,-8.646016E1,1.7690626E1,6.6234375E1],"split_indices":[0,0,0,0,0,0,0,0,0,0,0,0,0,0,0],"split_type":[0,0,0,0,0,0,0,0,0,0,0,0,0,0,0],"sum_hessian":[1E2,9.8E1,2E0,9.3E1,5E0,1E0,1E0,9.1E1,2E0,8.9E1,2E0,8.6E1,3E0,1E0,1E0],"tree_param":{"num_deleted":"0","num_feature":"4","num_nodes":"15","size_leaf_vector":"1"}},{"base_weights":[3.9390273E3,-4.2209597E0,1.327532E5,-1.5702997E3,2.0802857E4,4.1016E3,1.5811382E4,-1.6931646E3,1.5867344E3,1.1714701E3,2.90155E3,-1.7030621E2,-4.0614063E1,5.3153125E2,2.3761719E2,1.680625E1,6.292344E1],"categories":[],"categories_nodes":[],"categories_segments":[],"categories_sizes":[],"default_left":[0,0,0,0,0,0,0,0,0,0,0,0,0,0,0,0,0],"id":34,"left_children":[1,3,5,7,9,-1,-1,11,13,-1,-1,-1,-1,15,-1,-1,-1],"loss_changes":[5.1303137E10,3.2586335E9,4.9433395E8,3.8760256E7,1.8255667E8,0E0,0E0,4.54768E5,2.069058E6,0E0,0E0,0E0,0E0,7.85375E2,0E0,0E0,0E0],"parents":[2147483647,0,0,1,1,2,2,3,3,4,4,7,7,8,8,13,13],"right_children":[2,4,6,8,10,-1,-1,12,14,-1,-1,-1,-1,16,-1,-1,-1],"split_conditions":[4.415386E0,1.0360461E0,7.569262E0,4.6149567E-2,2.2163975E0,4.1016E3,1.5811382E4,-4.3150634E-2,1.15811996E-1,1.1714701E3,2.90155E3,-1.7030621E2,-4.0614063E1,5.5643562E-2,2.3761719E2,1.680625E1,6.292344E1],"split_indices":[0,0,0,0,0,0,0,0,0,0,0,0,0,0,0,0,0],"split_type":[0,0,0,0,0,0,0,0,0,0,0,0,0,0,0,0,0],"sum_hessian":[1E2,9.8E1,2E0,9.2E1,6E0,1E0,1E0,8.9E1,3E0,4E0,2E0,8.8E1,1E0,2E0,1E0,1E0,1E0],"tree_param":{"num_deleted":"0","num_feature":"4","num_nodes":"17","size_leaf_vector":"1"}},{"base_weights":[3.783667E3,3.842172E1,1.2611554E5,-1.3019521E3,2.1031209E4,3.8965188E3,1.50208125E4,-1.4765417E3,4.4861148E2,1.1235969E3,2.7081125E3,-1.5261854E3,5.049479E2,-1.5464246E2,-7.044375E1,1.5965625E1,5.977656E1],"categories":[],"categories_nodes":[],"categories_segments":[],"categories_sizes":[],"default_left":[0,0,0,0,0,0,0,0,0,0,0,0,0,0,0,0,0],"id":35,"left_children":[1,3,5,7,9,-1,-1,11,-1,-1,-1,13,15,-1,-1,-1,-1],"loss_changes":[4.6269608E10,2.8130616E9,4.461404E8,1.0161438E8,5.1279616E7,0E0,0E0,9.820528E6,0E0,0E0,0E0,4.07472E5,7.105625E2,0E0,0E0,0E0,0E0],"parents":[2147483647,0,0,1,1,2,2,3,3,4,4,7,7,11,11,12,12],"right_children":[2,4,6,8,10,-1,-1,12,-1,-1,-1,14,16,-1,-1,-1,-1],"split_conditions":[4.415386E0,1.1831E0,7.569262E0,1.15811996E-1,2.2163975E0,3.8965188E3,1.50208125E4,4.6149567E-2,4.4861148E2,1.1235969E3,2.7081125E3,-2.0979264E-1,5.5643562E-2,-1.5464246E2,-7.044375E1,1.5965625E1,5.977656E1],"split_indices":[0,0,0,0,0,0,0,0,0,0,0,0,0,0,0,0,0],"split_type":[0,0,0,0,0,0,0,0,0,0,0,0,0,0,0,0,0],"sum_hessian":[1E2,9.8E1,2E0,9.3E1,5E0,1E0,1E0,9.1E1,2E0,3E0,2E0,8.9E1,2E0,8.6E1,3E0,1E0,1E0],"tree_param":{"num_deleted":"0","num_feature":"4","num_nodes":"17","size_leaf_vector":"1"}},{"base_weights":[3.6335125E3,7.631692E1,1.1980979E5,-1.1685612E3,1.9566688E4,3.7016938E3,1.4269775E4,-1.3304983E3,4.1870312E2,1.0393251E3,2.527571E3,-1.3760548E3,4.796979E2,-1.393546E2,-6.516094E1,1.5167188E1,5.6787502E1],"categories":[],"categories_nodes":[],"categories_segments":[],"categories_sizes":[],"default_left":[0,0,0,0,0,0,0,0,0,0,0,0,0,0,0,0,0],"id":36,"left_children":[1,3,5,7,9,-1,-1,11,-1,-1,-1,13,15,-1,-1,-1,-1],"loss_changes":[4.1730294E10,2.4249152E9,4.026409E8,8.709416E7,5.1531264E7,0E0,0E0,8.246992E6,0E0,0E0,0E0,2.32384E5,6.42375E2,0E0,0E0,0E0,0E0],"parents":[2147483647,0,0,1,1,2,2,3,3,4,4,7,7,11,11,12,12],"right_children":[2,4,6,8,10,-1,-1,12,-1,-1,-1,14,16,-1,-1,-1,-1],"split_conditions":[4.415386E0,1.1831E0,7.569262E0,1.15811996E-1,2.2163975E0,3.7016938E3,1.4269775E4,4.6149567E-2,4.1870312E2,1.0393251E3,2.527571E3,-2.0979264E-1,5.5643562E-2,-1.393546E2,-6.516094E1,1.5167188E1,5.6787502E1],"split_indices":[0,0,0,0,0,0,0,0,0,0,0,0,0,0,0,0,0],"split_type":[0,0,0,0,0,0,0,0,0,0,0,0,0,0,0,0,0],"sum_hessian":[1E2,9.8E1,2E0,9.3E1,5E0,1E0,1E0,9.1E1,2E0,3E0,2E0,8.9E1,2E0,8.6E1,3E0,1E0,1E0],"tree_param":{"num_deleted":"0","num_feature":"4","num_nodes":"17","size_leaf_vector":"1"}},{"base_weights":[3.4862368E3,1.07596275E2,1.1381929E5,-1.0486705E3,1.820451E4,3.5166062E3,1.3556288E4,-1.1988994E3,3.9079062E2,9.613766E2,2.3590667E3,-1.2407323E3,4.5571875E2,-1.2475264E2,-3.1803125E1,1.4409375E1,5.3948437E1],"categories":[],"categories_nodes":[],"categories_segments":[],"categories_sizes":[],"default_left":[0,0,0,0,0,0,0,0,0,0,0,0,0,0,0,0,0],"id":37,"left_children":[1,3,5,7,9,-1,-1,11,-1,-1,-1,13,15,-1,-1,-1,-1],"loss_changes":[3.7638103E10,2.0906519E9,3.6339712E8,7.467957E7,5.083136E7,0E0,0E0,6.933416E6,0E0,0E0,0E0,1.67456E5,5.740625E2,0E0,0E0,0E0,0E0],"parents":[2147483647,0,0,1,1,2,2,3,3,4,4,7,7,11,11,12,12],"right_children":[2,4,6,8,10,-1,-1,12,-1,-1,-1,14,16,-1,-1,-1,-1],"split_conditions":[4.415386E0,1.1831E0,7.569262E0,1.15811996E-1,2.2163975E0,3.5166062E3,1.3556288E4,4.6149567E-2,3.9079062E2,9.613766E2,2.3590667E3,-4.3150634E-2,5.5643562E-2,-1.2475264E2,-3.1803125E1,1.4409375E1,5.3948437E1],"split_indices":[0,0,0,0,0,0,0,0,0,0,0,0,0,0,0,0,0],"split_type":[0,0,0,0,0,0,0,0,0,0,0,0,0,0,0,0,0],"sum_hessian":[1E2,9.8E1,2E0,9.3E1,5E0,1E0,1E0,9.1E1,2E0,3E0,2E0,8.9E1,2E0,8.8E1,1E0,1E0,1E0],"tree_param":{"num_deleted":"0","num_feature":"4","num_nodes":"17","size_leaf_vector":"1"}},{"base_weights":[3.3425212E3,1.3343088E2,1.08128336E5,-1.0333403E3,1.5615759E4,3.3407751E3,1.2878476E4,-1.118401E3,1.1388594E3,8.651287E2,2.201796E3,-1.1324878E2,-5.3241405E1,1.3689063E1,1.4272188E2],"categories":[],"categories_nodes":[],"categories_segments":[],"categories_sizes":[],"default_left":[0,0,0,0,0,0,0,0,0,0,0,0,0,0,0],"id":38,"left_children":[1,3,5,7,9,-1,-1,11,13,-1,-1,-1,-1,-1,-1],"loss_changes":[3.3948551E10,1.8045057E9,3.279708E8,1.8457192E7,1.2163174E8,0E0,0E0,1.3996E5,9.603355E5,0E0,0E0,0E0,0E0,0E0,0E0],"parents":[2147483647,0,0,1,1,2,2,3,3,4,4,7,7,8,8],"right_children":[2,4,6,8,10,-1,-1,12,14,-1,-1,-1,-1,-1,-1],"split_conditions":[4.415386E0,1.0360461E0,7.569262E0,4.6149567E-2,2.2163975E0,3.3407751E3,1.2878476E4,-2.0979264E-1,5.5643562E-2,8.651287E2,2.201796E3,-1.1324878E2,-5.3241405E1,1.3689063E1,1.4272188E2],"split_indices":[0,0,0,0,0,0,0,0,0,0,0,0,0,0,0],"split_type":[0,0,0,0,0,0,0,0,0,0,0,0,0,0,0],"sum_hessian":[1E2,9.8E1,2E0,9.2E1,6E0,1E0,1E0,8.9E1,3E0,4E0,2E0,8.6E1,3E0,1E0,2E0],"tree_param":{"num_deleted":"0","num_feature":"4","num_nodes":"15","size_leaf_vector":"1"}},{"base_weights":[3.1991228E3,1.5096623E2,1.02721914E5,-8.4766125E2,1.5770969E4,3.1737375E3,1.223455E4,-9.7406995E2,3.311427E2,6.454875E2,1.8815297E3,-1.00840936E3,3.808021E1,-1.0205395E2,-4.9247658E1],"categories":[],"categories_nodes":[],"categories_segments":[],"categories_sizes":[],"default_left":[0,0,0,0,0,0,0,0,0,0,0,0,0,0,0],"id":39,"left_children":[1,3,5,7,9,-1,-1,11,-1,-1,-1,13,-1,-1,-1],"loss_changes":[3.0623961E10,1.5576262E9,2.959872E8,5.26456E7,4.8717056E7,0E0,0E0,4.664344E6,0E0,0E0,0E0,6.0664E4,0E0,0E0,0E0],"parents":[2147483647,0,0,1,1,2,2,3,3,4,4,7,7,11,11],"right_children":[2,4,6,8,10,-1,-1,12,-1,-1,-1,14,-1,-1,-1],"split_conditions":[4.415386E0,1.1831E0,7.569262E0,1.15811996E-1,1.955483E0,3.1737375E3,1.223455E4,4.6149567E-2,3.311427E2,6.454875E2,1.8815297E3,-2.0979264E-1,3.808021E1,-1.0205395E2,-4.9247658E1],"split_indices":[0,0,0,0,0,0,0,0,0,0,0,0,0,0,0],"split_type":[0,0,0,0,0,0,0,0,0,0,0,0,0,0,0],"sum_hessian":[1E2,9.8E1,2E0,9.3E1,5E0,1E0,1E0,9.1E1,2E0,2E0,3E0,8.9E1,2E0,8.6E1,3E0],"tree_param":{"num_deleted":"0","num_feature":"4","num_nodes":"15","size_leaf_vector":"1"}},{"base_weights":[3.0589536E3,1.6360417E2,9.7585836E4,-7.6056915E2,1.4615052E4,3.01505E3,1.1622825E4,-8.7788586E2,3.0906668E2,7.450766E2,1.9295751E3,-9.0924133E2,3.5540625E2,-9.138199E1,-2.50875E1,1.11E1,4.2210938E1],"categories":[],"categories_nodes":[],"categories_segments":[],"categories_sizes":[],"default_left":[0,0,0,0,0,0,0,0,0,0,0,0,0,0,0,0,0],"id":40,"left_children":[1,3,5,7,9,-1,-1,11,-1,-1,-1,13,15,-1,-1,-1,-1],"loss_changes":[2.762656E10,1.3333244E9,2.6713293E8,4.51838E7,5.7435136E7,0E0,0E0,3.880832E6,0E0,0E0,0E0,4.2048E4,2.053875E3,0E0,0E0,0E0,0E0],"parents":[2147483647,0,0,1,1,2,2,3,3,4,4,7,7,11,11,12,12],"right_children":[2,4,6,8,10,-1,-1,12,-1,-1,-1,14,16,-1,-1,-1,-1],"split_conditions":[4.415386E0,1.1831E0,7.569262E0,1.15811996E-1,2.2163975E0,3.01505E3,1.1622825E4,4.6149567E-2,3.0906668E2,7.450766E2,1.9295751E3,-4.3150634E-2,5.5643562E-2,-9.138199E1,-2.50875E1,1.11E1,4.2210938E1],"split_indices":[0,0,0,0,0,0,0,0,0,0,0,0,0,0,0,0,0],"split_type":[0,0,0,0,0,0,0,0,0,0,0,0,0,0,0,0,0],"sum_hessian":[1E2,9.8E1,2E0,9.3E1,5E0,1E0,1E0,9.1E1,2E0,3E0,2E0,8.9E1,2E0,8.8E1,1E0,1E0,1E0],"tree_param":{"num_deleted":"0","num_feature":"4","num_nodes":"17","size_leaf_vector":"1"}},{"base_weights":[2.926899E3,1.7673895E2,9.270654E4,-7.5568854E2,1.2539455E4,2.8643E3,1.1041682E4,-8.1961804E2,8.7164844E2,6.7496124E2,1.8009375E3,-8.293255E1,-4.0357815E1,1.0545313E1,1.0918959E2],"categories":[],"categories_nodes":[],"categories_segments":[],"categories_sizes":[],"default_left":[0,0,0,0,0,0,0,0,0,0,0,0,0,0,0],"id":41,"left_children":[1,3,5,7,9,-1,-1,11,13,-1,-1,-1,-1,-1,-1],"loss_changes":[2.492136E10,1.1506821E9,2.4107827E8,1.0389668E7,1.001335E8,0E0,0E0,2.8776E4,5.598665E5,0E0,0E0,0E0,0E0,0E0,0E0],"parents":[2147483647,0,0,1,1,2,2,3,3,4,4,7,7,8,8],"right_children":[2,4,6,8,10,-1,-1,12,14,-1,-1,-1,-1,-1,-1],"split_conditions":[4.415386E0,1.0360461E0,7.569262E0,4.6149567E-2,2.2163975E0,2.8643E3,1.1041682E4,-2.0979264E-1,5.5643562E-2,6.7496124E2,1.8009375E3,-8.293255E1,-4.0357815E1,1.0545313E1,1.0918959E2],"split_indices":[0,0,0,0,0,0,0,0,0,0,0,0,0,0,0],"split_type":[0,0,0,0,0,0,0,0,0,0,0,0,0,0,0],"sum_hessian":[1E2,9.8E1,2E0,9.2E1,6E0,1E0,1E0,8.9E1,3E0,4E0,2E0,8.6E1,3E0,1E0,2E0],"tree_param":{"num_deleted":"0","num_feature":"4","num_nodes":"15","size_leaf_vector":"1"}},{"base_weights":[2.7963765E3,1.8404324E2,8.807125E4,-6.143514E2,1.2661552E4,2.7210876E3,1.0489601E4,-7.132476E2,2.62325E2,6.385766E2,1.680875E3,-7.390218E1,2.9772917E1],"categories":[],"categories_nodes":[],"categories_segments":[],"categories_sizes":[],"default_left":[0,0,0,0,0,0,0,0,0,0,0,0,0],"id":42,"left_children":[1,3,5,7,9,-1,-1,11,-1,-1,-1,-1,-1],"loss_changes":[2.2483196E10,9.940142E8,2.1756928E8,3.196856E7,4.8824896E7,0E0,0E0,2.617288E6,0E0,0E0,0E0,0E0,0E0],"parents":[2147483647,0,0,1,1,2,2,3,3,4,4,7,7],"right_children":[2,4,6,8,10,-1,-1,12,-1,-1,-1,-1,-1],"split_conditions":[4.415386E0,1.1831E0,7.569262E0,1.15811996E-1,2.2163975E0,2.7210876E3,1.0489601E4,4.6149567E-2,2.62325E2,6.385766E2,1.680875E3,-7.390218E1,2.9772917E1],"split_indices":[0,0,0,0,0,0,0,0,0,0,0,0,0],"split_type":[0,0,0,0,0,0,0,0,0,0,0,0,0],"sum_hessian":[1E2,9.8E1,2E0,9.3E1,5E0,1E0,1E0,9.1E1,2E0,3E0,2E0,8.9E1,2E0],"tree_param":{"num_deleted":"0","num_feature":"4","num_nodes":"13","size_leaf_vector":"1"}},{"base_weights":[2.6726665E3,1.9127588E2,8.3667664E4,-5.5059106E2,1.17819795E4,2.5850312E3,9.965119E3,-6.423988E2,2.4483751E2,5.906844E2,1.5688168E3,-6.659368E2,2.77875E2,-6.742845E1,-3.1789062E1,8.529688E0,3.315156E1],"categories":[],"categories_nodes":[],"categories_segments":[],"categories_sizes":[],"default_left":[0,0,0,0,0,0,0,0,0,0,0,0,0,0,0,0,0],"id":43,"left_children":[1,3,5,7,9,-1,-1,11,-1,-1,-1,13,15,-1,-1,-1,-1],"loss_changes":[2.0283E10,8.577642E8,1.963602E8,2.7453676E7,4.5028736E7,0E0,0E0,2.1779E6,0E0,0E0,0E0,4.7132E4,2.7127812E3,0E0,0E0,0E0,0E0],"parents":[2147483647,0,0,1,1,2,2,3,3,4,4,7,7,11,11,12,12],"right_children":[2,4,6,8,10,-1,-1,12,-1,-1,-1,14,16,-1,-1,-1,-1],"split_conditions":[4.415386E0,1.1831E0,7.569262E0,1.15811996E-1,2.2163975E0,2.5850312E3,9.965119E3,4.6149567E-2,2.4483751E2,5.906844E2,1.5688168E3,-2.0979264E-1,5.5643562E-2,-6.742845E1,-3.1789062E1,8.529688E0,3.315156E1],"split_indices":[0,0,0,0,0,0,0,0,0,0,0,0,0,0,0,0,0],"split_type":[0,0,0,0,0,0,0,0,0,0,0,0,0,0,0,0,0],"sum_hessian":[1E2,9.8E1,2E0,9.3E1,5E0,1E0,1E0,9.1E1,2E0,3E0,2E0,8.9E1,2E0,8.6E1,3E0,1E0,1E0],"tree_param":{"num_deleted":"0","num_feature":"4","num_nodes":"17","size_leaf_vector":"1"}},{"base_weights":[2.5529023E3,1.9586111E2,7.948429E4,-4.9353125E2,1.0963698E4,2.4557812E3,9.466862E3,-5.787762E2,2.2851562E2,5.463828E2,1.4642292E3,-6.0043713E2,2.6397916E2,-6.0577698E1,-2.4365625E1,8.103126E0,3.149375E1],"categories":[],"categories_nodes":[],"categories_segments":[],"categories_sizes":[],"default_left":[0,0,0,0,0,0,0,0,0,0,0,0,0,0,0,0,0],"id":44,"left_children":[1,3,5,7,9,-1,-1,11,-1,-1,-1,13,15,-1,-1,-1,-1],"loss_changes":[1.8298808E10,7.4031405E8,1.7720934E8,2.3588276E7,4.1387776E7,0E0,0E0,1.837954E6,0E0,0E0,0E0,2.3862E4,2.448375E3,0E0,0E0,0E0,0E0],"parents":[2147483647,0,0,1,1,2,2,3,3,4,4,7,7,11,11,12,12],"right_children":[2,4,6,8,10,-1,-1,12,-1,-1,-1,14,16,-1,-1,-1,-1],"split_conditions":[4.415386E0,1.1831E0,7.569262E0,1.15811996E-1,2.2163975E0,2.4557812E3,9.466862E3,4.6149567E-2,2.2851562E2,5.463828E2,1.4642292E3,-1.3327093E-1,5.5643562E-2,-6.0577698E1,-2.4365625E1,8.103126E0,3.149375E1],"split_indices":[0,0,0,0,0,0,0,0,0,0,0,0,0,0,0,0,0],"split_type":[0,0,0,0,0,0,0,0,0,0,0,0,0,0,0,0,0],"sum_hessian":[1E2,9.8E1,2E0,9.3E1,5E0,1E0,1E0,9.1E1,2E0,3E0,2E0,8.9E1,2E0,8.7E1,2E0,1E0,1E0],"tree_param":{"num_deleted":"0","num_feature":"4","num_nodes":"17","size_leaf_vector":"1"}},{"base_weights":[2.437366E3,1.984214E2,7.5510086E4,-4.982846E2,9.4263125E3,2.332994E3,8.993519E3,-5.4135175E2,5.952969E2,4.9971628E2,1.3666125E3,-5.4775574E1,-2.6672657E1,7.6984377E0,7.424062E1],"categories":[],"categories_nodes":[],"categories_segments":[],"categories_sizes":[],"default_left":[0,0,0,0,0,0,0,0,0,0,0,0,0,0,0],"id":45,"left_children":[1,3,5,7,9,-1,-1,11,13,-1,-1,-1,-1,-1,-1],"loss_changes":[1.6509199E10,6.4118054E8,1.5993037E8,4.702322E6,6.3159616E7,0E0,0E0,1.2184E4,2.4784075E5,0E0,0E0,0E0,0E0,0E0,0E0],"parents":[2147483647,0,0,1,1,2,2,3,3,4,4,7,7,8,8],"right_children":[2,4,6,8,10,-1,-1,12,14,-1,-1,-1,-1,-1,-1],"split_conditions":[4.415386E0,1.0360461E0,7.569262E0,4.6149567E-2,2.2163975E0,2.332994E3,8.993519E3,-2.0979264E-1,5.5643562E-2,4.9971628E2,1.3666125E3,-5.4775574E1,-2.6672657E1,7.6984377E0,7.424062E1],"split_indices":[0,0,0,0,0,0,0,0,0,0,0,0,0,0,0],"split_type":[0,0,0,0,0,0,0,0,0,0,0,0,0,0,0],"sum_hessian":[1E2,9.8E1,2E0,9.2E1,6E0,1E0,1E0,8.9E1,3E0,4E0,2E0,8.6E1,3E0,1E0,2E0],"tree_param":{"num_deleted":"0","num_feature":"4","num_nodes":"15","size_leaf_vector":"1"}},{"base_weights":[2.3242627E3,1.9744223E2,7.1734586E4,-3.4424506E2,1.0450013E4,2.2163438E3,8.543844E3,-4.7021738E2,2.6391797E3,2.9754062E2,1.1574813E3,-4.8811563E2,2.2346876E1,7.772969E1,3.0007083E2,-4.9045895E1,-1.3978126E1],"categories":[],"categories_nodes":[],"categories_segments":[],"categories_sizes":[],"default_left":[0,0,0,0,0,0,0,0,0,0,0,0,0,0,0,0,0],"id":46,"left_children":[1,3,5,7,9,-1,-1,11,13,-1,-1,15,-1,-1,-1,-1,-1],"loss_changes":[1.4895788E10,5.5341235E8,1.4433894E8,3.6944736E7,7.59744E6,0E0,0E0,1.251328E6,3.60054E5,0E0,0E0,4.906E3,0E0,0E0,0E0,0E0,0E0],"parents":[2147483647,0,0,1,1,2,2,3,3,4,4,7,7,8,8,11,11],"right_children":[2,4,6,8,10,-1,-1,12,14,-1,-1,16,-1,-1,-1,-1,-1],"split_conditions":[4.415386E0,1.2292256E0,7.569262E0,1.15811996E-1,1.955483E0,2.2163438E3,8.543844E3,4.6149567E-2,1.0360461E0,2.9754062E2,1.1574813E3,-4.3150634E-2,2.2346876E1,7.772969E1,3.0007083E2,-4.9045895E1,-1.3978126E1],"split_indices":[0,0,0,0,0,0,0,0,0,0,0,0,0,0,0,0,0],"split_type":[0,0,0,0,0,0,0,0,0,0,0,0,0,0,0,0,0],"sum_hessian":[1E2,9.8E1,2E0,9.4E1,4E0,1E0,1E0,9.1E1,3E0,1E0,3E0,8.9E1,2E0,1E0,2E0,8.8E1,1E0],"tree_param":{"num_deleted":"0","num_feature":"4","num_nodes":"17","size_leaf_vector":"1"}},{"base_weights":[2.216103E3,1.9578693E2,6.8147836E4,-3.062852E2,9.696E3,2.1055251E3,8.11665E3,-4.2365182E2,2.4697188E3,4.176625E2,1.1983375E3,-4.4001874E2,2.0857292E2,7.384375E1,2.8006668E2,-4.4513653E1,-2.1870314E1,6.196875E0,2.5089064E1],"categories":[],"categories_nodes":[],"categories_segments":[],"categories_sizes":[],"default_left":[0,0,0,0,0,0,0,0,0,0,0,0,0,0,0,0,0,0,0],"id":47,"left_children":[1,3,5,7,9,-1,-1,11,13,-1,-1,15,17,-1,-1,-1,-1,-1,-1],"loss_changes":[1.3440154E10,4.7517917E8,1.3026714E8,3.1998276E7,1.3074336E7,0E0,0E0,1.043751E6,2.23738E5,0E0,0E0,4.586E3,3.0644766E3,0E0,0E0,0E0,0E0,0E0,0E0],"parents":[2147483647,0,0,1,1,2,2,3,3,4,4,7,7,8,8,11,11,12,12],"right_children":[2,4,6,8,10,-1,-1,12,14,-1,-1,16,18,-1,-1,-1,-1,-1,-1],"split_conditions":[4.415386E0,1.2292256E0,7.569262E0,1.15811996E-1,2.2163975E0,2.1055251E3,8.11665E3,4.6149567E-2,1.0360461E0,4.176625E2,1.1983375E3,-2.0979264E-1,5.5643562E-2,7.384375E1,2.8006668E2,-4.4513653E1,-2.1870314E1,6.196875E0,2.5089064E1],"split_indices":[0,0,0,0,0,0,0,0,0,0,0,0,0,0,0,0,0,0,0],"split_type":[0,0,0,0,0,0,0,0,0,0,0,0,0,0,0,0,0,0,0],"sum_hessian":[1E2,9.8E1,2E0,9.4E1,4E0,1E0,1E0,9.1E1,3E0,2E0,2E0,8.9E1,2E0,1E0,2E0,8.6E1,3E0,1E0,1E0],"tree_param":{"num_deleted":"0","num_feature":"4","num_nodes":"19","size_leaf_vector":"1"}},{"base_weights":[2.1148481E3,1.9574022E2,6.4740457E4,-2.7231284E2,9.0496E3,2.00025E3,7.710819E3,-3.816807E2,2.3112266E3,3.8981668E2,1.1184501E3,-3.967674E1,1.9814583E2,7.0151566E1,2.6139584E2,5.8875003E0,2.3834375E1],"categories":[],"categories_nodes":[],"categories_segments":[],"categories_sizes":[],"default_left":[0,0,0,0,0,0,0,0,0,0,0,0,0,0,0,0,0],"id":48,"left_children":[1,3,5,7,9,-1,-1,11,13,-1,-1,-1,15,-1,-1,-1,-1],"loss_changes":[1.2126044E10,4.1272784E8,1.1756339E8,2.7724992E7,1.138992E7,0E0,0E0,8.83401E5,1.1551E5,0E0,0E0,0E0,2.7627031E3,0E0,0E0,0E0,0E0],"parents":[2147483647,0,0,1,1,2,2,3,3,4,4,7,7,8,8,12,12],"right_children":[2,4,6,8,10,-1,-1,12,14,-1,-1,-1,16,-1,-1,-1,-1],"split_conditions":[4.415386E0,1.2292256E0,7.569262E0,1.15811996E-1,2.2163975E0,2.00025E3,7.710819E3,4.6149567E-2,1.0360461E0,3.8981668E2,1.1184501E3,-3.967674E1,5.5643562E-2,7.0151566E1,2.6139584E2,5.8875003E0,2.3834375E1],"split_indices":[0,0,0,0,0,0,0,0,0,0,0,0,0,0,0,0,0],"split_type":[0,0,0,0,0,0,0,0,0,0,0,0,0,0,0,0,0],"sum_hessian":[1E2,9.8E1,2E0,9.4E1,4E0,1E0,1E0,9.1E1,3E0,2E0,2E0,8.9E1,2E0,1E0,2E0,1E0,1E0],"tree_param":{"num_deleted":"0","num_feature":"4","num_nodes":"17","size_leaf_vector":"1"}},{"base_weights":[2.0176395E3,1.9466003E2,6.1503418E4,-2.4168585E2,8.4463E3,1.9002375E3,7.325275E3,-3.4361038E2,2.163E3,3.638292E2,1.0438876E3,-3.5752084E2,1.8823958E2,6.664375E1,2.4397083E2,-3.6191666E1,-1.7253126E1,5.59375E0,2.2642187E1],"categories":[],"categories_nodes":[],"categories_segments":[],"categories_sizes":[],"default_left":[0,0,0,0,0,0,0,0,0,0,0,0,0,0,0,0,0,0,0],"id":49,"left_children":[1,3,5,7,9,-1,-1,11,13,-1,-1,15,17,-1,-1,-1,-1,-1,-1],"loss_changes":[1.0940604E10,3.5849773E8,1.0609971E8,2.4027396E7,9.921888E6,0E0,0E0,7.47939E5,3.0532E4,0E0,0E0,1.0745E4,2.4893125E3,0E0,0E0,0E0,0E0,0E0,0E0],"parents":[2147483647,0,0,1,1,2,2,3,3,4,4,7,7,8,8,11,11,12,12],"right_children":[2,4,6,8,10,-1,-1,12,14,-1,-1,16,18,-1,-1,-1,-1,-1,-1],"split_conditions":[4.415386E0,1.2292256E0,7.569262E0,1.15811996E-1,2.2163975E0,1.9002375E3,7.325275E3,4.6149567E-2,1.0360461E0,3.638292E2,1.0438876E3,-2.0979264E-1,5.5643562E-2,6.664375E1,2.4397083E2,-3.6191666E1,-1.7253126E1,5.59375E0,2.2642187E1],"split_indices":[0,0,0,0,0,0,0,0,0,0,0,0,0,0,0,0,0,0,0],"split_type":[0,0,0,0,0,0,0,0,0,0,0,0,0,0,0,0,0,0,0],"sum_hessian":[1E2,9.8E1,2E0,9.4E1,4E0,1E0,1E0,9.1E1,3E0,2E0,2E0,8.9E1,2E0,1E0,2E0,8.6E1,3E0,1E0,1E0],"tree_param":{"num_deleted":"0","num_feature":"4","num_nodes":"19","size_leaf_vector":"1"}},{"base_weights":[1.923977E3,1.922923E2,5.842825E4,-2.5559442E2,7.1771353E3,1.805225E3,6.9590127E3,-3.0952753E2,1.4835521E2,3.4584845E2,9.7429584E2,-3.2236667E2,1.7882292E2,-3.2614513E1,-1.5959375E1,5.3140626E0,2.1509375E1],"categories":[],"categories_nodes":[],"categories_segments":[],"categories_sizes":[],"default_left":[0,0,0,0,0,0,0,0,0,0,0,0,0,0,0,0,0],"id":50,"left_children":[1,3,5,7,9,-1,-1,11,-1,-1,-1,13,15,-1,-1,-1,-1],"loss_changes":[9.871371E9,3.115478E8,9.575731E7,9.27617E6,2.3552544E7,0E0,0E0,6.34487E5,0E0,0E0,0E0,3.303E3,2.245586E3,0E0,0E0,0E0,0E0],"parents":[2147483647,0,0,1,1,2,2,3,3,4,4,7,7,11,11,12,12],"right_children":[2,4,6,8,10,-1,-1,12,-1,-1,-1,14,16,-1,-1,-1,-1],"split_conditions":[4.415386E0,1.1831E0,7.569262E0,1.15811996E-1,2.2163975E0,1.805225E3,6.9590127E3,4.6149567E-2,1.4835521E2,3.4584845E2,9.7429584E2,-2.0979264E-1,5.5643562E-2,-3.2614513E1,-1.5959375E1,5.3140626E0,2.1509375E1],"split_indices":[0,0,0,0,0,0,0,0,0,0,0,0,0,0,0,0,0],"split_type":[0,0,0,0,0,0,0,0,0,0,0,0,0,0,0,0,0],"sum_hessian":[1E2,9.8E1,2E0,9.3E1,5E0,1E0,1E0,9.1E1,2E0,3E0,2E0,8.9E1,2E0,8.6E1,3E0,1E0,1E0],"tree_param":{"num_deleted":"0","num_feature":"4","num_nodes":"17","size_leaf_vector":"1"}},{"base_weights":[1.8326863E3,1.8768498E2,5.5506832E4,-1.9152567E2,7.35515E3,1.7149625E3,6.6110625E3,-2.7880096E2,1.8636875E3,3.165167E2,9.0934174E2,-2.9065937E1,1.6988542E2,5.589375E1,2.1122917E2,5.0484376E0,2.0434376E1],"categories":[],"categories_nodes":[],"categories_segments":[],"categories_sizes":[],"default_left":[0,0,0,0,0,0,0,0,0,0,0,0,0,0,0,0,0],"id":51,"left_children":[1,3,5,7,9,-1,-1,11,13,-1,-1,-1,15,-1,-1,-1,-1],"loss_changes":[8.90728E9,2.7048864E8,8.642355E7,1.7559684E7,7.634336E6,0E0,0E0,5.388845E5,1.16826E5,0E0,0E0,0E0,2.0269141E3,0E0,0E0,0E0,0E0],"parents":[2147483647,0,0,1,1,2,2,3,3,4,4,7,7,8,8,12,12],"right_children":[2,4,6,8,10,-1,-1,12,14,-1,-1,-1,16,-1,-1,-1,-1],"split_conditions":[4.415386E0,1.2292256E0,7.569262E0,1.15811996E-1,2.2163975E0,1.7149625E3,6.6110625E3,4.6149567E-2,1.0360461E0,3.165167E2,9.0934174E2,-2.9065937E1,5.5643562E-2,5.589375E1,2.1122917E2,5.0484376E0,2.0434376E1],"split_indices":[0,0,0,0,0,0,0,0,0,0,0,0,0,0,0,0,0],"split_type":[0,0,0,0,0,0,0,0,0,0,0,0,0,0,0,0,0],"sum_hessian":[1E2,9.8E1,2E0,9.4E1,4E0,1E0,1E0,9.1E1,3E0,2E0,2E0,8.9E1,2E0,1E0,2E0,1E0,1E0],"tree_param":{"num_deleted":"0","num_feature":"4","num_nodes":"17","size_leaf_vector":"1"}},{"base_weights":[1.7465974E3,1.8395802E2,5.27315E4,-1.6960297E2,6.864825E3,1.6292125E3,6.2805127E3,-2.5096332E2,1.7440859E3,2.954167E2,8.487208E2,-2.619198E2,1.6138542E2,5.309844E1,1.9714584E2,-2.6516666E1,-1.2582031E1,4.7953124E0,1.94125E1],"categories":[],"categories_nodes":[],"categories_segments":[],"categories_sizes":[],"default_left":[0,0,0,0,0,0,0,0,0,0,0,0,0,0,0,0,0,0,0],"id":52,"left_children":[1,3,5,7,9,-1,-1,11,13,-1,-1,15,17,-1,-1,-1,-1,-1,-1],"loss_changes":[8.0370724E9,2.3501158E8,7.800115E7,1.522905E7,6.650304E6,0E0,0E0,4.57916E5,5.649E4,0E0,0E0,6.4075E3,1.8322812E3,0E0,0E0,0E0,0E0,0E0,0E0],"parents":[2147483647,0,0,1,1,2,2,3,3,4,4,7,7,8,8,11,11,12,12],"right_children":[2,4,6,8,10,-1,-1,12,14,-1,-1,16,18,-1,-1,-1,-1,-1,-1],"split_conditions":[4.415386E0,1.2292256E0,7.569262E0,1.15811996E-1,2.2163975E0,1.6292125E3,6.2805127E3,4.6149567E-2,1.0360461E0,2.954167E2,8.487208E2,-2.0979264E-1,5.5643562E-2,5.309844E1,1.9714584E2,-2.6516666E1,-1.2582031E1,4.7953124E0,1.94125E1],"split_indices":[0,0,0,0,0,0,0,0,0,0,0,0,0,0,0,0,0,0,0],"split_type":[0,0,0,0,0,0,0,0,0,0,0,0,0,0,0,0,0,0,0],"sum_hessian":[1E2,9.8E1,2E0,9.4E1,4E0,1E0,1E0,9.1E1,3E0,2E0,2E0,8.9E1,2E0,1E0,2E0,8.6E1,3E0,1E0,1E0],"tree_param":{"num_deleted":"0","num_feature":"4","num_nodes":"19","size_leaf_vector":"1"}},{"base_weights":[1.6639224E3,1.7950916E2,5.0094918E4,-1.5015099E2,6.40715E3,1.54775E3,5.966488E3,-2.260146E2,1.63225E3,2.7572083E2,7.921375E2,-2.3614792E2,1.5332292E2,5.0443752E1,1.8400417E2,-2.3735006E1,-6.457813E0,4.55625E0,1.8442188E1],"categories":[],"categories_nodes":[],"categories_segments":[],"categories_sizes":[],"default_left":[0,0,0,0,0,0,0,0,0,0,0,0,0,0,0,0,0,0,0],"id":53,"left_children":[1,3,5,7,9,-1,-1,11,13,-1,-1,15,17,-1,-1,-1,-1,-1,-1],"loss_changes":[7.2520596E9,2.0420954E8,7.039898E7,1.3214755E7,5.79328E6,0E0,0E0,3.898495E5,9.214E3,0E0,0E0,3.235E3,1.6509922E3,0E0,0E0,0E0,0E0,0E0,0E0],"parents":[2147483647,0,0,1,1,2,2,3,3,4,4,7,7,8,8,11,11,12,12],"right_children":[2,4,6,8,10,-1,-1,12,14,-1,-1,16,18,-1,-1,-1,-1,-1,-1],"split_conditions":[4.415386E0,1.2292256E0,7.569262E0,1.15811996E-1,2.2163975E0,1.54775E3,5.966488E3,4.6149567E-2,1.0360461E0,2.7572083E2,7.921375E2,-4.3150634E-2,5.5643562E-2,5.0443752E1,1.8400417E2,-2.3735006E1,-6.457813E0,4.55625E0,1.8442188E1],"split_indices":[0,0,0,0,0,0,0,0,0,0,0,0,0,0,0,0,0,0,0],"split_type":[0,0,0,0,0,0,0,0,0,0,0,0,0,0,0,0,0,0,0],"sum_hessian":[1E2,9.8E1,2E0,9.4E1,4E0,1E0,1E0,9.1E1,3E0,2E0,2E0,8.9E1,2E0,1E0,2E0,8.8E1,1E0,1E0,1E0],"tree_param":{"num_deleted":"0","num_feature":"4","num_nodes":"19","size_leaf_vector":"1"}},{"base_weights":[1.5847643E3,1.7465341E2,4.7590168E4,-1.327296E2,5.98E3,1.4703625E3,5.6681626E3,-2.034769E2,1.5276407E2,2.573375E2,7.3932916E2,-2.1285382E2,1.4565625E2,-2.1546337E1,-1.0288281E1,4.328125E0,1.7520313E1],"categories":[],"categories_nodes":[],"categories_segments":[],"categories_sizes":[],"default_left":[0,0,0,0,0,0,0,0,0,0,0,0,0,0,0,0,0],"id":54,"left_children":[1,3,5,7,9,-1,-1,11,-1,-1,-1,13,15,-1,-1,-1,-1],"loss_changes":[6.5438326E9,1.7745576E8,6.353459E7,1.1470177E7,5.047072E6,0E0,0E0,3.321925E5,0E0,0E0,0E0,3.66025E3,1.4915742E3,0E0,0E0,0E0,0E0],"parents":[2147483647,0,0,1,1,2,2,3,3,4,4,7,7,11,11,12,12],"right_children":[2,4,6,8,10,-1,-1,12,-1,-1,-1,14,16,-1,-1,-1,-1],"split_conditions":[4.415386E0,1.2292256E0,7.569262E0,1.15811996E-1,2.2163975E0,1.4703625E3,5.6681626E3,4.6149567E-2,1.5276407E2,2.573375E2,7.3932916E2,-2.0979264E-1,5.5643562E-2,-2.1546337E1,-1.0288281E1,4.328125E0,1.7520313E1],"split_indices":[0,0,0,0,0,0,0,0,0,0,0,0,0,0,0,0,0],"split_type":[0,0,0,0,0,0,0,0,0,0,0,0,0,0,0,0,0],"sum_hessian":[1E2,9.8E1,2E0,9.4E1,4E0,1E0,1E0,9.1E1,3E0,2E0,2E0,8.9E1,2E0,8.6E1,3E0,1E0,1E0],"tree_param":{"num_deleted":"0","num_feature":"4","num_nodes":"17","size_leaf_vector":"1"}},{"base_weights":[1.5082363E3,1.6868561E2,4.5210668E4,-1.179671E2,5.58135E3,1.3968438E3,5.3847563E3,-1.8325204E2,1.4130781E3,2.4018333E2,6.900417E2,-1.919368E2,1.38375E2,4.0284374E1,1.6155417E2,-1.941796E1,-9.517188E0,4.1125E0,1.6643751E1],"categories":[],"categories_nodes":[],"categories_segments":[],"categories_sizes":[],"default_left":[0,0,0,0,0,0,0,0,0,0,0,0,0,0,0,0,0,0,0],"id":55,"left_children":[1,3,5,7,9,-1,-1,11,13,-1,-1,15,17,-1,-1,-1,-1,-1,-1],"loss_changes":[5.905078E9,1.5426237E8,5.734144E7,9.754596E6,4.39632E6,0E0,0E0,2.8353925E5,1.673315E5,0E0,0E0,1.0515E3,1.3424922E3,0E0,0E0,0E0,0E0,0E0,0E0],"parents":[2147483647,0,0,1,1,2,2,3,3,4,4,7,7,8,8,11,11,12,12],"right_children":[2,4,6,8,10,-1,-1,12,14,-1,-1,16,18,-1,-1,-1,-1,-1,-1],"split_conditions":[4.415386E0,1.2292256E0,7.569262E0,1.15811996E-1,2.2163975E0,1.3968438E3,5.3847563E3,4.6149567E-2,1.0360461E0,2.4018333E2,6.900417E2,-2.0979264E-1,5.5643562E-2,4.0284374E1,1.6155417E2,-1.941796E1,-9.517188E0,4.1125E0,1.6643751E1],"split_indices":[0,0,0,0,0,0,0,0,0,0,0,0,0,0,0,0,0,0,0],"split_type":[0,0,0,0,0,0,0,0,0,0,0,0,0,0,0,0,0,0,0],"sum_hessian":[1E2,9.8E1,2E0,9.4E1,4E0,1E0,1E0,9.1E1,3E0,2E0,2E0,8.9E1,2E0,1E0,2E0,8.6E1,3E0,1E0,1E0],"tree_param":{"num_deleted":"0","num_feature":"4","num_nodes":"19","size_leaf_vector":"1"}},{"base_weights":[1.4356742E3,1.6315877E2,4.2950125E4,-1.0414243E2,5.20925E3,1.327E3,5.115519E3,-1.6502649E2,1.3222266E3,2.2417082E2,6.4403754E2,-1.7307535E1,1.3144792E2,3.8270313E1,1.5078334E2,3.90625E0,1.5810938E1],"categories":[],"categories_nodes":[],"categories_segments":[],"categories_sizes":[],"default_left":[0,0,0,0,0,0,0,0,0,0,0,0,0,0,0,0,0],"id":56,"left_children":[1,3,5,7,9,-1,-1,11,13,-1,-1,-1,15,-1,-1,-1,-1],"loss_changes":[5.328598E9,1.3407632E8,5.175245E7,8.468301E6,3.829616E6,0E0,0E0,2.42288E5,1.20475E5,0E0,0E0,0E0,1.2132383E3,0E0,0E0,0E0,0E0],"parents":[2147483647,0,0,1,1,2,2,3,3,4,4,7,7,8,8,12,12],"right_children":[2,4,6,8,10,-1,-1,12,14,-1,-1,-1,16,-1,-1,-1,-1],"split_conditions":[4.415386E0,1.2292256E0,7.569262E0,1.15811996E-1,2.2163975E0,1.327E3,5.115519E3,4.6149567E-2,1.0360461E0,2.2417082E2,6.4403754E2,-1.7307535E1,5.5643562E-2,3.8270313E1,1.5078334E2,3.90625E0,1.5810938E1],"split_indices":[0,0,0,0,0,0,0,0,0,0,0,0,0,0,0,0,0],"split_type":[0,0,0,0,0,0,0,0,0,0,0,0,0,0,0,0,0],"sum_hessian":[1E2,9.8E1,2E0,9.4E1,4E0,1E0,1E0,9.1E1,3E0,2E0,2E0,8.9E1,2E0,1E0,2E0,1E0,1E0],"tree_param":{"num_deleted":"0","num_feature":"4","num_nodes":"17","size_leaf_vector":"1"}},{"base_weights":[1.3663889E3,1.5754956E2,4.0802625E4,-6.443392E1,5.445766E2,1.26065E3,4.8597437E3,-1.4849287E2,1.4951375E3,-1.5595522E2,1.24875E2,3.635625E1,1.6871407E2,-1.5788291E1,-7.5039062E0,3.7109375E0,1.5020312E1],"categories":[],"categories_nodes":[],"categories_segments":[],"categories_sizes":[],"default_left":[0,0,0,0,0,0,0,0,0,0,0,0,0,0,0,0,0],"id":57,"left_children":[1,3,5,7,-1,-1,-1,9,11,13,15,-1,-1,-1,-1,-1,-1],"loss_changes":[4.808451E9,1.1656666E8,4.670669E7,1.2807227E7,0E0,0E0,0E0,2.0715162E5,4.72948E5,2.191E3,1.0948711E3,0E0,0E0,0E0,0E0,0E0,0E0],"parents":[2147483647,0,0,1,1,2,2,3,3,7,7,8,8,9,9,10,10],"right_children":[2,4,6,8,-1,-1,-1,10,12,14,16,-1,-1,-1,-1,-1,-1],"split_conditions":[4.415386E0,1.955483E0,7.569262E0,1.15811996E-1,5.445766E2,1.26065E3,4.8597437E3,4.6149567E-2,1.0360461E0,-2.0979264E-1,5.5643562E-2,3.635625E1,1.6871407E2,-1.5788291E1,-7.5039062E0,3.7109375E0,1.5020312E1],"split_indices":[0,0,0,0,0,0,0,0,0,0,0,0,0,0,0,0,0],"split_type":[0,0,0,0,0,0,0,0,0,0,0,0,0,0,0,0,0],"sum_hessian":[1E2,9.8E1,2E0,9.5E1,3E0,1E0,1E0,9.1E1,4E0,8.9E1,2E0,1E0,3E0,8.6E1,3E0,1E0,1E0],"tree_param":{"num_deleted":"0","num_feature":"4","num_nodes":"17","size_leaf_vector":"1"}},{"base_weights":[1.2977203E3,1.4931566E2,3.87625E4,-8.131711E1,4.501475E3,1.1976188E3,4.6167563E3,-1.3370007E2,1.1438203E3,1.8545E2,5.6479584E2,-1.4062535E2,1.18625E2,3.4539062E1,1.2948334E2,-1.4184979E1,-5.7833333E0,3.525E0,1.426875E1],"categories":[],"categories_nodes":[],"categories_segments":[],"categories_sizes":[],"default_left":[0,0,0,0,0,0,0,0,0,0,0,0,0,0,0,0,0,0,0],"id":58,"left_children":[1,3,5,7,9,-1,-1,11,13,-1,-1,15,17,-1,-1,-1,-1,-1,-1],"loss_changes":[4.3397094E9,9.973734E7,4.2151424E7,6.24968E6,4.699432E6,0E0,0E0,1.7744438E5,3.507E4,0E0,0E0,9.2E2,9.8889844E2,0E0,0E0,0E0,0E0,0E0,0E0],"parents":[2147483647,0,0,1,1,2,2,3,3,4,4,7,7,8,8,11,11,12,12],"right_children":[2,4,6,8,10,-1,-1,12,14,-1,-1,16,18,-1,-1,-1,-1,-1,-1],"split_conditions":[4.415386E0,1.2292256E0,7.569262E0,1.15811996E-1,2.2163975E0,1.1976188E3,4.6167563E3,4.6149567E-2,1.0360461E0,1.8545E2,5.6479584E2,-1.3327093E-1,5.5643562E-2,3.4539062E1,1.2948334E2,-1.4184979E1,-5.7833333E0,3.525E0,1.426875E1],"split_indices":[0,0,0,0,0,0,0,0,0,0,0,0,0,0,0,0,0,0,0],"split_type":[0,0,0,0,0,0,0,0,0,0,0,0,0,0,0,0,0,0,0],"sum_hessian":[1E2,9.8E1,2E0,9.4E1,4E0,1E0,1E0,9.1E1,3E0,2E0,2E0,8.9E1,2E0,1E0,2E0,8.7E1,2E0,1E0,1E0],"tree_param":{"num_deleted":"0","num_feature":"4","num_nodes":"19","size_leaf_vector":"1"}},{"base_weights":[1.2345486E3,1.435988E2,3.6824375E4,-4.8104492E1,4.7085782E2,1.1377375E3,4.385919E3,-1.2035156E2,1.2908625E3,-1.26782295E2,1.126875E2,3.28125E1,1.4495157E2,-1.2825862E1,-6.2976565E0,3.3484375E0,1.35546875E1],"categories":[],"categories_nodes":[],"categories_segments":[],"categories_sizes":[],"default_left":[0,0,0,0,0,0,0,0,0,0,0,0,0,0,0,0,0],"id":59,"left_children":[1,3,5,7,-1,-1,-1,9,11,13,15,-1,-1,-1,-1,-1,-1],"loss_changes":[3.9162102E9,8.6863544E7,3.8041856E7,9.442055E6,0E0,0E0,0E0,1.5215888E5,2.880845E5,4.00625E2,8.9289844E2,0E0,0E0,0E0,0E0,0E0,0E0],"parents":[2147483647,0,0,1,1,2,2,3,3,7,7,8,8,9,9,10,10],"right_children":[2,4,6,8,-1,-1,-1,10,12,14,16,-1,-1,-1,-1,-1,-1],"split_conditions":[4.415386E0,1.955483E0,7.569262E0,1.15811996E-1,4.7085782E2,1.1377375E3,4.385919E3,4.6149567E-2,1.0360461E0,-2.0979264E-1,5.5643562E-2,3.28125E1,1.4495157E2,-1.2825862E1,-6.2976565E0,3.3484375E0,1.35546875E1],"split_indices":[0,0,0,0,0,0,0,0,0,0,0,0,0,0,0,0,0],"split_type":[0,0,0,0,0,0,0,0,0,0,0,0,0,0,0,0,0],"sum_hessian":[1E2,9.8E1,2E0,9.5E1,3E0,1E0,1E0,9.1E1,4E0,8.9E1,2E0,1E0,3E0,8.6E1,3E0,1E0,1E0],"tree_param":{"num_deleted":"0","num_feature":"4","num_nodes":"17","size_leaf_vector":"1"}},{"base_weights":[1.1721726E3,1.3575694E2,3.4983168E4,-4.1476562E1,4.355422E3,1.08085E3,4.166625E3,-1.08352585E2,1.1973375E3,1.2745937E2,4.9575E2,-1.1432882E2,1.07052086E2,3.1171875E1,1.3408125E2,-1.148722E1,-3.2984376E0,3.18125E0,1.2876563E1],"categories":[],"categories_nodes":[],"categories_segments":[],"categories_sizes":[],"default_left":[0,0,0,0,0,0,0,0,0,0,0,0,0,0,0,0,0,0,0],"id":60,"left_children":[1,3,5,7,9,-1,-1,11,13,-1,-1,15,17,-1,-1,-1,-1,-1,-1],"loss_changes":[3.5345178E9,7.4219384E7,3.433421E7,8.083042E6,1.1008E6,0E0,0E0,1.3067175E5,2.17364E5,0E0,0E0,1.89125E2,8.047969E2,0E0,0E0,0E0,0E0,0E0,0E0],"parents":[2147483647,0,0,1,1,2,2,3,3,4,4,7,7,8,8,11,11,12,12],"right_children":[2,4,6,8,10,-1,-1,12,14,-1,-1,16,18,-1,-1,-1,-1,-1,-1],"split_conditions":[4.415386E0,1.955483E0,7.569262E0,1.15811996E-1,2.2163975E0,1.08085E3,4.166625E3,4.6149567E-2,1.0360461E0,1.2745937E2,4.9575E2,-4.3150634E-2,5.5643562E-2,3.1171875E1,1.3408125E2,-1.148722E1,-3.2984376E0,3.18125E0,1.2876563E1],"split_indices":[0,0,0,0,0,0,0,0,0,0,0,0,0,0,0,0,0,0,0],"split_type":[0,0,0,0,0,0,0,0,0,0,0,0,0,0,0,0,0,0,0],"sum_hessian":[1E2,9.8E1,2E0,9.5E1,3E0,1E0,1E0,9.1E1,4E0,1E0,2E0,8.9E1,2E0,1E0,3E0,8.8E1,1E0,1E0,1E0],"tree_param":{"num_deleted":"0","num_feature":"4","num_nodes":"19","size_leaf_vector":"1"}},{"base_weights":[1.1147417E3,1.3017078E2,3.3234E4,-3.5581707E1,4.0756875E3,1.0268063E3,3.9582937E3,-9.7491165E1,1.1106687E3,1.210875E2,4.627E2,-1.0304757E2,1.01697914E2,2.9614063E1,1.24026566E2,-1.0422558E1,-5.166406E0,3.0218751E0,1.2232813E1],"categories":[],"categories_nodes":[],"categories_segments":[],"categories_sizes":[],"default_left":[0,0,0,0,0,0,0,0,0,0,0,0,0,0,0,0,0,0,0],"id":61,"left_children":[1,3,5,7,9,-1,-1,11,13,-1,-1,15,17,-1,-1,-1,-1,-1,-1],"loss_changes":[3.1896663E9,6.4888956E7,3.0987776E7,6.9208E6,7.14908E5,0E0,0E0,1.1230294E5,1.60509E5,0E0,0E0,6.29375E1,7.272871E2,0E0,0E0,0E0,0E0,0E0,0E0],"parents":[2147483647,0,0,1,1,2,2,3,3,4,4,7,7,8,8,11,11,12,12],"right_children":[2,4,6,8,10,-1,-1,12,14,-1,-1,16,18,-1,-1,-1,-1,-1,-1],"split_conditions":[4.415386E0,1.955483E0,7.569262E0,1.15811996E-1,2.2163975E0,1.0268063E3,3.9582937E3,4.6149567E-2,1.0360461E0,1.210875E2,4.627E2,-2.0979264E-1,5.5643562E-2,2.9614063E1,1.24026566E2,-1.0422558E1,-5.166406E0,3.0218751E0,1.2232813E1],"split_indices":[0,0,0,0,0,0,0,0,0,0,0,0,0,0,0,0,0,0,0],"split_type":[0,0,0,0,0,0,0,0,0,0,0,0,0,0,0,0,0,0,0],"sum_hessian":[1E2,9.8E1,2E0,9.5E1,3E0,1E0,1E0,9.1E1,4E0,1E0,2E0,8.9E1,2E0,1E0,3E0,8.6E1,3E0,1E0,1E0],"tree_param":{"num_deleted":"0","num_feature":"4","num_nodes":"19","size_leaf_vector":"1"}},{"base_weights":[1.0599375E3,1.2461301E2,3.1572334E4,-3.041276E1,3.8140781E3,9.7546875E2,3.7603813E3,-8.7731995E1,1.0303438E3,1.1503438E2,4.3185416E2,-9.290209E0,9.6614586E1,2.8132812E1,1.1472656E2,2.8703125E0,1.1621875E1],"categories":[],"categories_nodes":[],"categories_segments":[],"categories_sizes":[],"default_left":[0,0,0,0,0,0,0,0,0,0,0,0,0,0,0,0,0],"id":62,"left_children":[1,3,5,7,9,-1,-1,11,13,-1,-1,-1,15,-1,-1,-1,-1],"loss_changes":[2.8785037E9,5.674025E7,2.7964672E7,5.927362E6,4.0722E5,0E0,0E0,9.665981E4,1.151235E5,0E0,0E0,0E0,6.582012E2,0E0,0E0,0E0,0E0],"parents":[2147483647,0,0,1,1,2,2,3,3,4,4,7,7,8,8,12,12],"right_children":[2,4,6,8,10,-1,-1,12,14,-1,-1,-1,16,-1,-1,-1,-1],"split_conditions":[4.415386E0,1.955483E0,7.569262E0,1.15811996E-1,2.2163975E0,9.7546875E2,3.7603813E3,4.6149567E-2,1.0360461E0,1.1503438E2,4.3185416E2,-9.290209E0,5.5643562E-2,2.8132812E1,1.1472656E2,2.8703125E0,1.1621875E1],"split_indices":[0,0,0,0,0,0,0,0,0,0,0,0,0,0,0,0,0],"split_type":[0,0,0,0,0,0,0,0,0,0,0,0,0,0,0,0,0],"sum_hessian":[1E2,9.8E1,2E0,9.5E1,3E0,1E0,1E0,9.1E1,4E0,1E0,2E0,8.9E1,2E0,1E0,3E0,1E0,1E0],"tree_param":{"num_deleted":"0","num_feature":"4","num_nodes":"17","size_leaf_vector":"1"}},{"base_weights":[1.0077045E3,1.19161934E2,2.9993709E4,-2.5838217E1,3.569375E3,9.266938E2,3.5723625E3,-7.8911E1,9.558688E2,1.0928125E2,4.030625E2,-8.372396E1,9.178125E1,2.6726562E1,1.06120316E2,-8.473348E0,-4.083594E0,2.7265625E0,1.1040626E1],"categories":[],"categories_nodes":[],"categories_segments":[],"categories_sizes":[],"default_left":[0,0,0,0,0,0,0,0,0,0,0,0,0,0,0,0,0,0,0],"id":63,"left_children":[1,3,5,7,9,-1,-1,11,13,-1,-1,15,17,-1,-1,-1,-1,-1,-1],"loss_changes":[2.5977108E9,4.962009E7,2.5239552E7,5.077213E6,1.6454E5,0E0,0E0,8.326544E4,7.90455E4,0E0,0E0,4.365E2,5.945156E2,0E0,0E0,0E0,0E0,0E0,0E0],"parents":[2147483647,0,0,1,1,2,2,3,3,4,4,7,7,8,8,11,11,12,12],"right_children":[2,4,6,8,10,-1,-1,12,14,-1,-1,16,18,-1,-1,-1,-1,-1,-1],"split_conditions":[4.415386E0,1.955483E0,7.569262E0,1.15811996E-1,2.2163975E0,9.266938E2,3.5723625E3,4.6149567E-2,1.0360461E0,1.0928125E2,4.030625E2,-2.0979264E-1,5.5643562E-2,2.6726562E1,1.06120316E2,-8.473348E0,-4.083594E0,2.7265625E0,1.1040626E1],"split_indices":[0,0,0,0,0,0,0,0,0,0,0,0,0,0,0,0,0,0,0],"split_type":[0,0,0,0,0,0,0,0,0,0,0,0,0,0,0,0,0,0,0],"sum_hessian":[1E2,9.8E1,2E0,9.5E1,3E0,1E0,1E0,9.1E1,4E0,1E0,2E0,8.9E1,2E0,1E0,3E0,8.6E1,3E0,1E0,1E0],"tree_param":{"num_deleted":"0","num_feature":"4","num_nodes":"19","size_leaf_vector":"1"}},{"base_weights":[9.578753E2,1.1377178E2,2.8494E4,-2.1861654E1,3.3405313E2,8.8035626E2,3.393744E3,-7.101053E1,8.8685E2,-7.549514E1,8.7197914E1,2.5390625E1,9.816094E1,-7.636207E0,-3.7765625E0,2.590625E0,1.0489062E1],"categories":[],"categories_nodes":[],"categories_segments":[],"categories_sizes":[],"default_left":[0,0,0,0,0,0,0,0,0,0,0,0,0,0,0,0,0],"id":64,"left_children":[1,3,5,7,-1,-1,-1,9,11,13,15,-1,-1,-1,-1,-1,-1],"loss_changes":[2.3443356E9,4.340102E7,2.2780672E7,4.350543E6,0E0,0E0,0E0,7.185731E4,5.064975E4,5.99375E1,5.359238E2,0E0,0E0,0E0,0E0,0E0,0E0],"parents":[2147483647,0,0,1,1,2,2,3,3,7,7,8,8,9,9,10,10],"right_children":[2,4,6,8,-1,-1,-1,10,12,14,16,-1,-1,-1,-1,-1,-1],"split_conditions":[4.415386E0,1.955483E0,7.569262E0,1.15811996E-1,3.3405313E2,8.8035626E2,3.393744E3,4.6149567E-2,1.0360461E0,-2.0979264E-1,5.5643562E-2,2.5390625E1,9.816094E1,-7.636207E0,-3.7765625E0,2.590625E0,1.0489062E1],"split_indices":[0,0,0,0,0,0,0,0,0,0,0,0,0,0,0,0,0],"split_type":[0,0,0,0,0,0,0,0,0,0,0,0,0,0,0,0,0],"sum_hessian":[1E2,9.8E1,2E0,9.5E1,3E0,1E0,1E0,9.1E1,4E0,8.9E1,2E0,1E0,3E0,8.6E1,3E0,1E0,1E0],"tree_param":{"num_deleted":"0","num_feature":"4","num_nodes":"17","size_leaf_vector":"1"}},{"base_weights":[9.0894183E2,1.0702273E2,2.7069291E4,-3.3844078E1,2.7620874E3,8.363375E2,3.2240564E3,-6.3901833E1,6.6594536E1,1.06427086E2,3.5392084E2,-6.8082986E0,8.2833336E1,2.4609375E0,9.964063E0],"categories":[],"categories_nodes":[],"categories_segments":[],"categories_sizes":[],"default_left":[0,0,0,0,0,0,0,0,0,0,0,0,0,0,0],"id":65,"left_children":[1,3,5,7,9,-1,-1,11,-1,-1,-1,-1,13,-1,-1],"loss_changes":[2.1159296E9,3.712052E7,2.0560384E7,2.0407945E6,2.830368E6,0E0,0E0,6.2083562E4,0E0,0E0,0E0,0E0,4.8366602E2,0E0,0E0],"parents":[2147483647,0,0,1,1,2,2,3,3,4,4,7,7,12,12],"right_children":[2,4,6,8,10,-1,-1,12,-1,-1,-1,-1,14,-1,-1],"split_conditions":[4.415386E0,1.2292256E0,7.569262E0,1.15811996E-1,2.2163975E0,8.363375E2,3.2240564E3,4.6149567E-2,6.6594536E1,1.06427086E2,3.5392084E2,-6.8082986E0,5.5643562E-2,2.4609375E0,9.964063E0],"split_indices":[0,0,0,0,0,0,0,0,0,0,0,0,0,0,0],"split_type":[0,0,0,0,0,0,0,0,0,0,0,0,0,0,0],"sum_hessian":[1E2,9.8E1,2E0,9.4E1,4E0,1E0,1E0,9.1E1,3E0,2E0,2E0,8.9E1,2E0,1E0,1E0],"tree_param":{"num_deleted":"0","num_feature":"4","num_nodes":"15","size_leaf_vector":"1"}},{"base_weights":[8.635251E2,1.0170234E2,2.5715834E4,-1.5386394E1,2.8864062E3,7.9451874E2,3.0628562E3,-5.744667E1,7.616E2,8.1793755E1,3.30325E2,-6.134618E1,7.86875E1,2.0790625E1,8.480469E1,-6.209052E0,-2.9820313E0,2.3375E0,9.465625E0],"categories":[],"categories_nodes":[],"categories_segments":[],"categories_sizes":[],"default_left":[0,0,0,0,0,0,0,0,0,0,0,0,0,0,0,0,0,0,0],"id":66,"left_children":[1,3,5,7,9,-1,-1,11,13,-1,-1,15,17,-1,-1,-1,-1,-1,-1],"loss_changes":[1.909623E9,3.2324098E7,1.855744E7,3.1810565E6,7.4706E5,0E0,0E0,5.366597E4,6.301125E4,0E0,0E0,2.60375E2,4.372246E2,0E0,0E0,0E0,0E0,0E0,0E0],"parents":[2147483647,0,0,1,1,2,2,3,3,4,4,7,7,8,8,11,11,12,12],"right_children":[2,4,6,8,10,-1,-1,12,14,-1,-1,16,18,-1,-1,-1,-1,-1,-1],"split_conditions":[4.415386E0,1.955483E0,7.569262E0,1.15811996E-1,2.2163975E0,7.9451874E2,3.0628562E3,4.6149567E-2,1.0360461E0,8.1793755E1,3.30325E2,-2.0979264E-1,5.5643562E-2,2.0790625E1,8.480469E1,-6.209052E0,-2.9820313E0,2.3375E0,9.465625E0],"split_indices":[0,0,0,0,0,0,0,0,0,0,0,0,0,0,0,0,0,0,0],"split_type":[0,0,0,0,0,0,0,0,0,0,0,0,0,0,0,0,0,0,0],"sum_hessian":[1E2,9.8E1,2E0,9.5E1,3E0,1E0,1E0,9.1E1,4E0,1E0,2E0,8.9E1,2E0,1E0,3E0,8.6E1,3E0,1E0,1E0],"tree_param":{"num_deleted":"0","num_feature":"4","num_nodes":"19","size_leaf_vector":"1"}},{"base_weights":[8.205238E2,9.679577E1,2.4430041E4,-1.2712565E1,2.7007969E3,7.5479376E2,2.9097126E3,-5.166508E1,7.065563E2,7.7703125E1,3.0830417E2,-5.5304863E1,7.475E1,1.9751562E1,7.844375E1,-5.5582867E0,-1.528125E0,2.2203126E0,8.9921875E0],"categories":[],"categories_nodes":[],"categories_segments":[],"categories_sizes":[],"default_left":[0,0,0,0,0,0,0,0,0,0,0,0,0,0,0,0,0,0,0],"id":67,"left_children":[1,3,5,7,9,-1,-1,11,13,-1,-1,15,17,-1,-1,-1,-1,-1,-1],"loss_changes":[1.7234092E9,2.8265158E7,1.6747392E7,2.7261678E6,5.45778E5,0E0,0E0,4.646536E4,4.3285E4,0E0,0E0,1.52E2,3.9515625E2,0E0,0E0,0E0,0E0,0E0,0E0],"parents":[2147483647,0,0,1,1,2,2,3,3,4,4,7,7,8,8,11,11,12,12],"right_children":[2,4,6,8,10,-1,-1,12,14,-1,-1,16,18,-1,-1,-1,-1,-1,-1],"split_conditions":[4.415386E0,1.955483E0,7.569262E0,1.15811996E-1,2.2163975E0,7.5479376E2,2.9097126E3,4.6149567E-2,1.0360461E0,7.7703125E1,3.0830417E2,-4.3150634E-2,5.5643562E-2,1.9751562E1,7.844375E1,-5.5582867E0,-1.528125E0,2.2203126E0,8.9921875E0],"split_indices":[0,0,0,0,0,0,0,0,0,0,0,0,0,0,0,0,0,0,0],"split_type":[0,0,0,0,0,0,0,0,0,0,0,0,0,0,0,0,0,0,0],"sum_hessian":[1E2,9.8E1,2E0,9.5E1,3E0,1E0,1E0,9.1E1,4E0,1E0,2E0,8.9E1,2E0,1E0,3E0,8.8E1,1E0,1E0,1E0],"tree_param":{"num_deleted":"0","num_feature":"4","num_nodes":"19","size_leaf_vector":"1"}},{"base_weights":[7.795925E2,9.205271E1,2.3208541E4,-1.0371419E1,2.5272188E3,7.170563E2,2.764225E3,-4.644973E1,6.5554376E2,7.381875E1,2.8775E2,-4.9848957E1,7.1010414E1,1.8764063E1,7.2560936E1,-5.0444684E0,-2.4429688E0,2.109375E0,8.542188E0],"categories":[],"categories_nodes":[],"categories_segments":[],"categories_sizes":[],"default_left":[0,0,0,0,0,0,0,0,0,0,0,0,0,0,0,0,0,0,0],"id":68,"left_children":[1,3,5,7,9,-1,-1,11,13,-1,-1,15,17,-1,-1,-1,-1,-1,-1],"loss_changes":[1.555364E9,2.4718768E7,1.5112704E7,2.3368588E6,3.82522E5,0E0,0E0,4.0273016E4,2.776575E4,0E0,0E0,1.305E2,3.5624805E2,0E0,0E0,0E0,0E0,0E0,0E0],"parents":[2147483647,0,0,1,1,2,2,3,3,4,4,7,7,8,8,11,11,12,12],"right_children":[2,4,6,8,10,-1,-1,12,14,-1,-1,16,18,-1,-1,-1,-1,-1,-1],"split_conditions":[4.415386E0,1.955483E0,7.569262E0,1.15811996E-1,2.2163975E0,7.170563E2,2.764225E3,4.6149567E-2,1.0360461E0,7.381875E1,2.8775E2,-2.0979264E-1,5.5643562E-2,1.8764063E1,7.2560936E1,-5.0444684E0,-2.4429688E0,2.109375E0,8.542188E0],"split_indices":[0,0,0,0,0,0,0,0,0,0,0,0,0,0,0,0,0,0,0],"split_type":[0,0,0,0,0,0,0,0,0,0,0,0,0,0,0,0,0,0,0],"sum_hessian":[1E2,9.8E1,2E0,9.5E1,3E0,1E0,1E0,9.1E1,4E0,1E0,2E0,8.9E1,2E0,1E0,3E0,8.6E1,3E0,1E0,1E0],"tree_param":{"num_deleted":"0","num_feature":"4","num_nodes":"19","size_leaf_vector":"1"}},{"base_weights":[7.4060583E2,8.744255E1,2.2048125E4,-8.3619795E0,2.3648906E3,6.8120624E2,2.6260125E3,-4.1782948E1,6.082562E2,7.012813E1,2.6856668E2,-4.4960068E1,6.7458336E1,1.7826563E1,6.711875E1,-4.5471263E0,-2.2601564E0,2.003125E0,8.115625E0],"categories":[],"categories_nodes":[],"categories_segments":[],"categories_sizes":[],"default_left":[0,0,0,0,0,0,0,0,0,0,0,0,0,0,0,0,0,0,0],"id":69,"left_children":[1,3,5,7,9,-1,-1,11,13,-1,-1,15,17,-1,-1,-1,-1,-1,-1],"loss_changes":[1.4037183E9,2.1620568E7,1.3637376E7,2.0037808E6,2.51176E5,0E0,0E0,3.496364E4,1.56495E4,0E0,0E0,9.375E-1,3.232959E2,0E0,0E0,0E0,0E0,0E0,0E0],"parents":[2147483647,0,0,1,1,2,2,3,3,4,4,7,7,8,8,11,11,12,12],"right_children":[2,4,6,8,10,-1,-1,12,14,-1,-1,16,18,-1,-1,-1,-1,-1,-1],"split_conditions":[4.415386E0,1.955483E0,7.569262E0,1.15811996E-1,2.2163975E0,6.8120624E2,2.6260125E3,4.6149567E-2,1.0360461E0,7.012813E1,2.6856668E2,-2.0979264E-1,5.5643562E-2,1.7826563E1,6.711875E1,-4.5471263E0,-2.2601564E0,2.003125E0,8.115625E0],"split_indices":[0,0,0,0,0,0,0,0,0,0,0,0,0,0,0,0,0,0,0],"split_type":[0,0,0,0,0,0,0,0,0,0,0,0,0,0,0,0,0,0,0],"sum_hessian":[1E2,9.8E1,2E0,9.5E1,3E0,1E0,1E0,9.1E1,4E0,1E0,2E0,8.9E1,2E0,1E0,3E0,8.6E1,3E0,1E0,1E0],"tree_param":{"num_deleted":"0","num_feature":"4","num_nodes":"19","size_leaf_vector":"1"}},{"base_weights":[7.035297E2,8.302399E1,2.0945709E4,-1.762171E1,1.9786875E3,6.4714374E2,2.4947126E3,-3.7554688E1,4.452422E1,7.911875E1,2.506625E2,-4.052535E0,6.4083336E1,1.903125E0,7.709375E0],"categories":[],"categories_nodes":[],"categories_segments":[],"categories_sizes":[],"default_left":[0,0,0,0,0,0,0,0,0,0,0,0,0,0,0],"id":70,"left_children":[1,3,5,7,9,-1,-1,11,-1,-1,-1,-1,13,-1,-1],"loss_changes":[1.26686E9,1.8923114E7,1.2308992E7,8.932152E5,1.15142E6,0E0,0E0,3.0374742E4,0E0,0E0,0E0,0E0,2.9124902E2,0E0,0E0],"parents":[2147483647,0,0,1,1,2,2,3,3,4,4,7,7,12,12],"right_children":[2,4,6,8,10,-1,-1,12,-1,-1,-1,-1,14,-1,-1],"split_conditions":[4.415386E0,1.2292256E0,7.569262E0,1.15811996E-1,2.2163975E0,6.4714374E2,2.4947126E3,4.6149567E-2,4.452422E1,7.911875E1,2.506625E2,-4.052535E0,5.5643562E-2,1.903125E0,7.709375E0],"split_indices":[0,0,0,0,0,0,0,0,0,0,0,0,0,0,0],"split_type":[0,0,0,0,0,0,0,0,0,0,0,0,0,0,0],"sum_hessian":[1E2,9.8E1,2E0,9.4E1,4E0,1E0,1E0,9.1E1,3E0,2E0,2E0,8.9E1,2E0,1E0,1E0],"tree_param":{"num_deleted":"0","num_feature":"4","num_nodes":"15","size_leaf_vector":"1"}},{"base_weights":[6.680535E2,7.856724E1,1.9898416E4,-5.1422524E0,2.0679531E3,6.1478754E2,2.369975E3,-3.372928E1,5.218875E2,6.2665627E1,2.3395E2,-3.6507988E1,6.0875E1,1.4709375E1,5.7881252E1,-3.6945405E0,-1.7867187E0,1.8078126E0,7.3234377E0],"categories":[],"categories_nodes":[],"categories_segments":[],"categories_sizes":[],"default_left":[0,0,0,0,0,0,0,0,0,0,0,0,0,0,0,0,0,0,0],"id":71,"left_children":[1,3,5,7,9,-1,-1,11,13,-1,-1,15,17,-1,-1,-1,-1,-1,-1],"loss_changes":[1.1433761E9,1.649715E7,1.1108096E7,1.4639594E6,9.9458E4,0E0,0E0,2.6407164E4,2.1536E4,0E0,0E0,7.372656E1,2.6288672E2,0E0,0E0,0E0,0E0,0E0,0E0],"parents":[2147483647,0,0,1,1,2,2,3,3,4,4,7,7,8,8,11,11,12,12],"right_children":[2,4,6,8,10,-1,-1,12,14,-1,-1,16,18,-1,-1,-1,-1,-1,-1],"split_conditions":[4.415386E0,1.955483E0,7.569262E0,1.15811996E-1,2.2163975E0,6.1478754E2,2.369975E3,4.6149567E-2,1.0360461E0,6.2665627E1,2.3395E2,-2.0979264E-1,5.5643562E-2,1.4709375E1,5.7881252E1,-3.6945405E0,-1.7867187E0,1.8078126E0,7.3234377E0],"split_indices":[0,0,0,0,0,0,0,0,0,0,0,0,0,0,0,0,0,0,0],"split_type":[0,0,0,0,0,0,0,0,0,0,0,0,0,0,0,0,0,0,0],"sum_hessian":[1E2,9.8E1,2E0,9.5E1,3E0,1E0,1E0,9.1E1,4E0,1E0,2E0,8.9E1,2E0,1E0,3E0,8.6E1,3E0,1E0,1E0],"tree_param":{"num_deleted":"0","num_feature":"4","num_nodes":"19","size_leaf_vector":"1"}},{"base_weights":[6.344861E2,7.447064E1,1.89035E4,-3.8401692E0,1.9353125E3,5.8405E2,2.251475E3,-3.032337E1,4.8421875E2,5.953125E1,2.1835417E2,-3.2925E1,5.7833332E1,1.3973437E1,5.3540627E1,-3.308708E0,-9.25E-1,1.7171875E0,6.957813E0],"categories":[],"categories_nodes":[],"categories_segments":[],"categories_sizes":[],"default_left":[0,0,0,0,0,0,0,0,0,0,0,0,0,0,0,0,0,0,0],"id":72,"left_children":[1,3,5,7,9,-1,-1,11,13,-1,-1,15,17,-1,-1,-1,-1,-1,-1],"loss_changes":[1.03191616E9,1.4434112E7,1.0023872E7,1.2555179E6,3.0619E4,0E0,0E0,2.3004477E4,1.335175E4,0E0,0E0,3.9296875E1,2.3789355E2,0E0,0E0,0E0,0E0,0E0,0E0],"parents":[2147483647,0,0,1,1,2,2,3,3,4,4,7,7,8,8,11,11,12,12],"right_children":[2,4,6,8,10,-1,-1,12,14,-1,-1,16,18,-1,-1,-1,-1,-1,-1],"split_conditions":[4.415386E0,1.955483E0,7.569262E0,1.15811996E-1,2.2163975E0,5.8405E2,2.251475E3,4.6149567E-2,1.0360461E0,5.953125E1,2.1835417E2,-4.3150634E-2,5.5643562E-2,1.3973437E1,5.3540627E1,-3.308708E0,-9.25E-1,1.7171875E0,6.957813E0],"split_indices":[0,0,0,0,0,0,0,0,0,0,0,0,0,0,0,0,0,0,0],"split_type":[0,0,0,0,0,0,0,0,0,0,0,0,0,0,0,0,0,0,0],"sum_hessian":[1E2,9.8E1,2E0,9.5E1,3E0,1E0,1E0,9.1E1,4E0,1E0,2E0,8.9E1,2E0,1E0,3E0,8.8E1,1E0,1E0,1E0],"tree_param":{"num_deleted":"0","num_feature":"4","num_nodes":"19","size_leaf_vector":"1"}},{"base_weights":[6.025786E2,7.0559975E1,1.7958334E4,-2.7037761E0,1.81125E2,5.5485004E2,2.1389001E3,-2.723913E1,4.492875E2,-2.9675694E1,5.49375E1,1.3275001E1,4.9523438E1,-3.0025861E0,-1.4640626E0,1.63125E0,6.609375E0],"categories":[],"categories_nodes":[],"categories_segments":[],"categories_sizes":[],"default_left":[0,0,0,0,0,0,0,0,0,0,0,0,0,0,0,0,0],"id":73,"left_children":[1,3,5,7,-1,-1,-1,9,11,13,15,-1,-1,-1,-1,-1,-1],"loss_changes":[9.3132486E8,1.2630316E7,9.04512E6,1.0768559E6,0E0,0E0,0E0,2.0051352E4,6.9771875E3,3.4226562E1,2.1457617E2,0E0,0E0,0E0,0E0,0E0,0E0],"parents":[2147483647,0,0,1,1,2,2,3,3,7,7,8,8,9,9,10,10],"right_children":[2,4,6,8,-1,-1,-1,10,12,14,16,-1,-1,-1,-1,-1,-1],"split_conditions":[4.415386E0,1.955483E0,7.569262E0,1.15811996E-1,1.81125E2,5.5485004E2,2.1389001E3,4.6149567E-2,1.0360461E0,-2.0979264E-1,5.5643562E-2,1.3275001E1,4.9523438E1,-3.0025861E0,-1.4640626E0,1.63125E0,6.609375E0],"split_indices":[0,0,0,0,0,0,0,0,0,0,0,0,0,0,0,0,0],"split_type":[0,0,0,0,0,0,0,0,0,0,0,0,0,0,0,0,0],"sum_hessian":[1E2,9.8E1,2E0,9.5E1,3E0,1E0,1E0,9.1E1,4E0,8.9E1,2E0,1E0,3E0,8.6E1,3E0,1E0,1E0],"tree_param":{"num_deleted":"0","num_feature":"4","num_nodes":"17","size_leaf_vector":"1"}},{"base_weights":[5.7144275E2,6.600474E1,1.7060416E4,-1.0191776E1,1.5005375E3,5.2710626E2,2.0319563E3,-2.4476223E1,3.2089844E1,5.836875E1,1.9172084E2,-2.676007E0,5.2197918E1,1.5500001E0,6.2796874E0],"categories":[],"categories_nodes":[],"categories_segments":[],"categories_sizes":[],"default_left":[0,0,0,0,0,0,0,0,0,0,0,0,0,0,0],"id":74,"left_children":[1,3,5,7,9,-1,-1,11,-1,-1,-1,-1,13,-1,-1],"loss_changes":[8.406235E8,1.0836626E7,8.163968E6,4.5715122E5,7.91072E5,0E0,0E0,1.7507121E4,0E0,0E0,0E0,0E0,1.9352734E2,0E0,0E0],"parents":[2147483647,0,0,1,1,2,2,3,3,4,4,7,7,12,12],"right_children":[2,4,6,8,10,-1,-1,12,-1,-1,-1,-1,14,-1,-1],"split_conditions":[4.415386E0,1.2292256E0,7.569262E0,1.15811996E-1,2.2163975E0,5.2710626E2,2.0319563E3,4.6149567E-2,3.2089844E1,5.836875E1,1.9172084E2,-2.676007E0,5.5643562E-2,1.5500001E0,6.2796874E0],"split_indices":[0,0,0,0,0,0,0,0,0,0,0,0,0,0,0],"split_type":[0,0,0,0,0,0,0,0,0,0,0,0,0,0,0],"sum_hessian":[1E2,9.8E1,2E0,9.4E1,4E0,1E0,1E0,9.1E1,3E0,2E0,2E0,8.9E1,2E0,1E0,1E0],"tree_param":{"num_deleted":"0","num_feature":"4","num_nodes":"15","size_leaf_vector":"1"}},{"base_weights":[5.424898E2,6.2316605E1,1.6207375E4,-8.769408E0,1.4004875E3,5.0075E2,1.9303563E3,-2.1961617E1,2.9684376E1,5.447708E1,1.789375E2,-2.410243E1,4.9583332E1,-2.4403737E0,-1.1523438E0,1.4718751E0,5.9656253E0],"categories":[],"categories_nodes":[],"categories_segments":[],"categories_sizes":[],"default_left":[0,0,0,0,0,0,0,0,0,0,0,0,0,0,0,0,0],"id":75,"left_children":[1,3,5,7,9,-1,-1,11,-1,-1,-1,13,15,-1,-1,-1,-1],"loss_changes":[7.5869766E8,9.429679E6,7.368128E6,3.8953184E5,6.89089E5,0E0,0E0,1.5286203E4,0E0,0E0,0E0,5.9898438E1,1.7549854E2,0E0,0E0,0E0,0E0],"parents":[2147483647,0,0,1,1,2,2,3,3,4,4,7,7,11,11,12,12],"right_children":[2,4,6,8,10,-1,-1,12,-1,-1,-1,14,16,-1,-1,-1,-1],"split_conditions":[4.415386E0,1.2292256E0,7.569262E0,1.15811996E-1,2.2163975E0,5.0075E2,1.9303563E3,4.6149567E-2,2.9684376E1,5.447708E1,1.789375E2,-2.0979264E-1,5.5643562E-2,-2.4403737E0,-1.1523438E0,1.4718751E0,5.9656253E0],"split_indices":[0,0,0,0,0,0,0,0,0,0,0,0,0,0,0,0,0],"split_type":[0,0,0,0,0,0,0,0,0,0,0,0,0,0,0,0,0],"sum_hessian":[1E2,9.8E1,2E0,9.4E1,4E0,1E0,1E0,9.1E1,3E0,2E0,2E0,8.9E1,2E0,8.6E1,3E0,1E0,1E0],"tree_param":{"num_deleted":"0","num_feature":"4","num_nodes":"17","size_leaf_vector":"1"}},{"base_weights":[5.149511E2,5.8778408E1,1.5397E4,-7.542105E0,1.3071125E3,4.757125E2,1.8338375E3,-1.9726223E1,2.7457813E1,5.084375E1,1.6700835E2,-2.1734722E1,4.7104168E1,-2.1994255E0,-1.0656251E0,1.3984375E0,5.6671877E0],"categories":[],"categories_nodes":[],"categories_segments":[],"categories_sizes":[],"default_left":[0,0,0,0,0,0,0,0,0,0,0,0,0,0,0,0,0],"id":76,"left_children":[1,3,5,7,9,-1,-1,11,-1,-1,-1,13,15,-1,-1,-1,-1],"loss_changes":[6.847622E8,8.206084E6,6.649664E6,3.319681E5,6.00347E5,0E0,0E0,1.337284E4,0E0,0E0,0E0,2.4394531E1,1.581206E2,0E0,0E0,0E0,0E0],"parents":[2147483647,0,0,1,1,2,2,3,3,4,4,7,7,11,11,12,12],"right_children":[2,4,6,8,10,-1,-1,12,-1,-1,-1,14,16,-1,-1,-1,-1],"split_conditions":[4.415386E0,1.2292256E0,7.569262E0,1.15811996E-1,2.2163975E0,4.757125E2,1.8338375E3,4.6149567E-2,2.7457813E1,5.084375E1,1.6700835E2,-2.0979264E-1,5.5643562E-2,-2.1994255E0,-1.0656251E0,1.3984375E0,5.6671877E0],"split_indices":[0,0,0,0,0,0,0,0,0,0,0,0,0,0,0,0,0],"split_type":[0,0,0,0,0,0,0,0,0,0,0,0,0,0,0,0,0],"sum_hessian":[1E2,9.8E1,2E0,9.4E1,4E0,1E0,1E0,9.1E1,3E0,2E0,2E0,8.9E1,2E0,8.6E1,3E0,1E0,1E0],"tree_param":{"num_deleted":"0","num_feature":"4","num_nodes":"17","size_leaf_vector":"1"}},{"base_weights":[4.8877817E2,5.540625E1,1.4627125E4,2.3665364E-1,1.365625E3,4.5192502E2,1.7421438E3,-1.5780578E1,3.7257812E1,3.93125E1,1.55875E2,-1.9101648E1,9.021875E0,-1.9609028E1,1.328125E0,-1.9703652E0,-5.59375E-1],"categories":[],"categories_nodes":[],"categories_segments":[],"categories_sizes":[],"default_left":[0,0,0,0,0,0,0,0,0,0,0,0,0,0,0,0,0],"id":77,"left_children":[1,3,5,7,9,-1,-1,11,-1,-1,-1,13,-1,15,-1,-1,-1],"loss_changes":[6.18033E8,7.1558165E6,6.001856E6,5.7841194E5,1.384725E5,0E0,0E0,3.4462234E4,0E0,0E0,0E0,1.7555977E3,0E0,9.140625E0,0E0,0E0,0E0],"parents":[2147483647,0,0,1,1,2,2,3,3,4,4,7,7,11,11,13,13],"right_children":[2,4,6,8,10,-1,-1,12,-1,-1,-1,14,-1,16,-1,-1,-1],"split_conditions":[4.415386E0,1.955483E0,7.569262E0,1.0360461E0,2.2163975E0,4.5192502E2,1.7421438E3,5.5643562E-2,3.7257812E1,3.93125E1,1.55875E2,4.6149567E-2,9.021875E0,-4.3150634E-2,1.328125E0,-1.9703652E0,-5.59375E-1],"split_indices":[0,0,0,0,0,0,0,0,0,0,0,0,0,0,0,0,0],"split_type":[0,0,0,0,0,0,0,0,0,0,0,0,0,0,0,0,0],"sum_hessian":[1E2,9.8E1,2E0,9.5E1,3E0,1E0,1E0,9.2E1,3E0,1E0,2E0,9E1,2E0,8.9E1,1E0,8.8E1,1E0],"tree_param":{"num_deleted":"0","num_feature":"4","num_nodes":"17","size_leaf_vector":"1"}},{"base_weights":[4.6400217E2,5.229135E1,1.3895792E4,6.813151E-1,1.2778594E3,4.2933127E2,1.6550375E3,-1.411996E1,3.446406E1,3.7346874E1,1.4548334E2,-1.7206043E1,8.419791E0,-1.7677778E1,1.2625E0,-1.7885777E0,-8.734375E-1],"categories":[],"categories_nodes":[],"categories_segments":[],"categories_sizes":[],"default_left":[0,0,0,0,0,0,0,0,0,0,0,0,0,0,0,0,0],"id":78,"left_children":[1,3,5,7,9,-1,-1,11,-1,-1,-1,13,-1,15,-1,-1,-1],"loss_changes":[5.578047E8,6.261039E6,5.415872E6,4.936058E5,9.68795E4,0E0,0E0,2.9666518E4,0E0,0E0,0E0,1.5037617E3,0E0,1.1199219E1,0E0,0E0,0E0],"parents":[2147483647,0,0,1,1,2,2,3,3,4,4,7,7,11,11,13,13],"right_children":[2,4,6,8,10,-1,-1,12,-1,-1,-1,14,-1,16,-1,-1,-1],"split_conditions":[4.415386E0,1.955483E0,7.569262E0,1.0360461E0,2.2163975E0,4.2933127E2,1.6550375E3,5.5643562E-2,3.446406E1,3.7346874E1,1.4548334E2,4.6149567E-2,8.419791E0,-2.0979264E-1,1.2625E0,-1.7885777E0,-8.734375E-1],"split_indices":[0,0,0,0,0,0,0,0,0,0,0,0,0,0,0,0,0],"split_type":[0,0,0,0,0,0,0,0,0,0,0,0,0,0,0,0,0],"sum_hessian":[1E2,9.8E1,2E0,9.5E1,3E0,1E0,1E0,9.2E1,3E0,1E0,2E0,9E1,2E0,8.9E1,1E0,8.6E1,3E0],"tree_param":{"num_deleted":"0","num_feature":"4","num_nodes":"17","size_leaf_vector":"1"}},{"base_weights":[4.4045453E2,4.9322285E1,1.3201E4,-4.9029603E0,1.0697375E3,4.0786252E2,1.5722875E3,-1.4358016E1,2.1378906E1,4.2506252E1,1.3578334E2,-1.5946528E0,3.8083332E1,1.2E0,4.5125003E0],"categories":[],"categories_nodes":[],"categories_segments":[],"categories_sizes":[],"default_left":[0,0,0,0,0,0,0,0,0,0,0,0,0,0,0],"id":79,"left_children":[1,3,5,7,9,-1,-1,11,-1,-1,-1,-1,13,-1,-1],"loss_changes":[5.03446E8,5.483139E6,4.888768E6,1.9950539E5,3.51477E5,0E0,0E0,8.271236E3,0E0,0E0,0E0,0E0,9.510254E0,0E0,0E0],"parents":[2147483647,0,0,1,1,2,2,3,3,4,4,7,7,12,12],"right_children":[2,4,6,8,10,-1,-1,12,-1,-1,-1,-1,14,-1,-1],"split_conditions":[4.415386E0,1.2292256E0,7.569262E0,1.15811996E-1,2.2163975E0,4.0786252E2,1.5722875E3,4.6149567E-2,2.1378906E1,4.2506252E1,1.3578334E2,-1.5946528E0,5.5643562E-2,1.2E0,4.5125003E0],"split_indices":[0,0,0,0,0,0,0,0,0,0,0,0,0,0,0],"split_type":[0,0,0,0,0,0,0,0,0,0,0,0,0,0,0],"sum_hessian":[1E2,9.8E1,2E0,9.4E1,4E0,1E0,1E0,9.1E1,3E0,2E0,2E0,8.9E1,2E0,1E0,1E0],"tree_param":{"num_deleted":"0","num_feature":"4","num_nodes":"15","size_leaf_vector":"1"}},{"base_weights":[4.1803156E2,4.64476E1,1.2540958E4,1.3476562E0,1.1172344E3,3.8746875E2,1.493675E3,-1.140457E1,2.975E1,5.09E1,1.4709688E2,-1.3961882E1,6.9968753E0,-1.4370486E1,1.140625E0,-1.4549569E0,-6.8828124E-1],"categories":[],"categories_nodes":[],"categories_segments":[],"categories_sizes":[],"default_left":[0,0,0,0,0,0,0,0,0,0,0,0,0,0,0,0,0],"id":80,"left_children":[1,3,5,7,9,-1,-1,11,-1,-1,-1,13,-1,15,-1,-1,-1],"loss_changes":[4.543907E8,4.7794445E6,4.41248E6,3.6594662E5,1.118905E5,0E0,0E0,2.0329914E4,0E0,0E0,0E0,1.1071758E3,0E0,2.0539062E1,0E0,0E0,0E0],"parents":[2147483647,0,0,1,1,2,2,3,3,4,4,7,7,11,11,13,13],"right_children":[2,4,6,8,10,-1,-1,12,-1,-1,-1,14,-1,16,-1,-1,-1],"split_conditions":[4.415386E0,1.955483E0,7.569262E0,1.0360461E0,2.2252722E0,3.8746875E2,1.493675E3,5.5643562E-2,2.975E1,5.09E1,1.4709688E2,4.6149567E-2,6.9968753E0,-2.0979264E-1,1.140625E0,-1.4549569E0,-6.8828124E-1],"split_indices":[0,0,0,0,0,0,0,0,0,0,0,0,0,0,0,0,0],"split_type":[0,0,0,0,0,0,0,0,0,0,0,0,0,0,0,0,0],"sum_hessian":[1E2,9.8E1,2E0,9.5E1,3E0,1E0,1E0,9.2E1,3E0,2E0,1E0,9E1,2E0,8.9E1,1E0,8.6E1,3E0],"tree_param":{"num_deleted":"0","num_feature":"4","num_nodes":"17","size_leaf_vector":"1"}},{"base_weights":[3.9717883E2,4.4176136E1,1.1913875E4,1.5976562E0,1.0550156E3,3.6809375E2,1.4189875E3,-1.0186828E1,2.7518751E1,4.7508335E1,1.3974063E2,-1.256353E1,6.5302086E0,-1.29440975E1,1.084375E0,-1.3097701E0,-6.3671875E-1],"categories":[],"categories_nodes":[],"categories_segments":[],"categories_sizes":[],"default_left":[0,0,0,0,0,0,0,0,0,0,0,0,0,0,0,0,0],"id":81,"left_children":[1,3,5,7,9,-1,-1,11,-1,-1,-1,13,-1,15,-1,-1,-1],"loss_changes":[4.1008163E8,4.2592755E6,3.982432E6,3.1231834E5,1.30369E5,0E0,0E0,1.7505988E4,0E0,0E0,0E0,9.509951E2,0E0,7.524414E0,0E0,0E0,0E0],"parents":[2147483647,0,0,1,1,2,2,3,3,4,4,7,7,11,11,13,13],"right_children":[2,4,6,8,10,-1,-1,12,-1,-1,-1,14,-1,16,-1,-1,-1],"split_conditions":[4.415386E0,1.955483E0,7.569262E0,1.0360461E0,2.2252722E0,3.6809375E2,1.4189875E3,5.5643562E-2,2.7518751E1,4.7508335E1,1.3974063E2,4.6149567E-2,6.5302086E0,-2.0979264E-1,1.084375E0,-1.3097701E0,-6.3671875E-1],"split_indices":[0,0,0,0,0,0,0,0,0,0,0,0,0,0,0,0,0],"split_type":[0,0,0,0,0,0,0,0,0,0,0,0,0,0,0,0,0],"sum_hessian":[1E2,9.8E1,2E0,9.5E1,3E0,1E0,1E0,9.2E1,3E0,2E0,1E0,9E1,2E0,8.9E1,1E0,8.6E1,3E0],"tree_param":{"num_deleted":"0","num_feature":"4","num_nodes":"17","size_leaf_vector":"1"}},{"base_weights":[3.7733942E2,4.198769E1,1.1318167E4,1.7861328E0,9.963281E2,3.496875E2,1.3480375E3,-9.105175E0,2.545625E2,4.4341667E1,1.3275313E2,-1.1314561E1,6.094792E0,7.190625E0,2.9147917E1,-1.1669097E1,1.0296875E0,-1.1723315E0,-3.421875E-1],"categories":[],"categories_nodes":[],"categories_segments":[],"categories_sizes":[],"default_left":[0,0,0,0,0,0,0,0,0,0,0,0,0,0,0,0,0,0,0],"id":82,"left_children":[1,3,5,7,9,-1,-1,11,13,-1,-1,15,-1,-1,-1,17,-1,-1,-1],"loss_changes":[3.7009632E8,3.7964515E6,3.594592E6,2.6661206E5,1.438545E5,0E0,0E0,1.5083607E4,6.013078E3,0E0,0E0,8.1740234E2,0E0,0E0,0E0,1.2792969E-1,0E0,0E0,0E0],"parents":[2147483647,0,0,1,1,2,2,3,3,4,4,7,7,8,8,11,11,15,15],"right_children":[2,4,6,8,10,-1,-1,12,14,-1,-1,16,-1,-1,-1,18,-1,-1,-1],"split_conditions":[4.415386E0,1.955483E0,7.569262E0,1.0360461E0,2.2252722E0,3.496875E2,1.3480375E3,5.5643562E-2,1.1831E0,4.4341667E1,1.3275313E2,4.6149567E-2,6.094792E0,7.190625E0,2.9147917E1,-4.3150634E-2,1.0296875E0,-1.1723315E0,-3.421875E-1],"split_indices":[0,0,0,0,0,0,0,0,0,0,0,0,0,0,0,0,0,0,0],"split_type":[0,0,0,0,0,0,0,0,0,0,0,0,0,0,0,0,0,0,0],"sum_hessian":[1E2,9.8E1,2E0,9.5E1,3E0,1E0,1E0,9.2E1,3E0,2E0,1E0,9E1,2E0,1E0,2E0,8.9E1,1E0,8.8E1,1E0],"tree_param":{"num_deleted":"0","num_feature":"4","num_nodes":"19","size_leaf_vector":"1"}},{"base_weights":[3.5859747E2,4.0016098E1,1.075225E4,2.0589192E0,9.409844E2,3.322E2,1.2806376E3,-8.11996E0,2.3820312E2,4.13875E1,1.2611562E2,-1.0173763E1,5.688542E0,6.83125E0,2.7206251E1,-1.0504167E1,9.7812504E-1,-1.0626438E0,-5.21875E-1],"categories":[],"categories_nodes":[],"categories_segments":[],"categories_sizes":[],"default_left":[0,0,0,0,0,0,0,0,0,0,0,0,0,0,0,0,0,0,0],"id":83,"left_children":[1,3,5,7,9,-1,-1,11,13,-1,-1,15,-1,-1,-1,17,-1,-1,-1],"loss_changes":[3.3400336E8,3.383686E6,3.245216E6,2.3268781E5,1.5310125E5,0E0,0E0,1.2995012E4,4.424297E3,0E0,0E0,7.0272363E2,0E0,0E0,0E0,2.7060547E0,0E0,0E0,0E0],"parents":[2147483647,0,0,1,1,2,2,3,3,4,4,7,7,8,8,11,11,15,15],"right_children":[2,4,6,8,10,-1,-1,12,14,-1,-1,16,-1,-1,-1,18,-1,-1,-1],"split_conditions":[4.415386E0,1.955483E0,7.569262E0,1.0360461E0,2.2252722E0,3.322E2,1.2806376E3,5.5643562E-2,1.1831E0,4.13875E1,1.2611562E2,4.6149567E-2,5.688542E0,6.83125E0,2.7206251E1,-2.0979264E-1,9.7812504E-1,-1.0626438E0,-5.21875E-1],"split_indices":[0,0,0,0,0,0,0,0,0,0,0,0,0,0,0,0,0,0,0],"split_type":[0,0,0,0,0,0,0,0,0,0,0,0,0,0,0,0,0,0,0],"sum_hessian":[1E2,9.8E1,2E0,9.5E1,3E0,1E0,1E0,9.2E1,3E0,2E0,1E0,9E1,2E0,1E0,2E0,8.9E1,1E0,8.6E1,3E0],"tree_param":{"num_deleted":"0","num_feature":"4","num_nodes":"19","size_leaf_vector":"1"}},{"base_weights":[3.4075156E2,3.810259E1,1.0214583E4,2.2613933E0,8.887656E2,3.155875E2,1.2166E3,-7.253024E0,2.2290625E2,3.8629166E1,1.1980938E2,-9.162775E0,5.3093753E0,6.490625E0,2.5393751E1,-9.471181E-1,9.296875E-1],"categories":[],"categories_nodes":[],"categories_segments":[],"categories_sizes":[],"default_left":[0,0,0,0,0,0,0,0,0,0,0,0,0,0,0,0,0],"id":84,"left_children":[1,3,5,7,9,-1,-1,11,13,-1,-1,15,-1,-1,-1,-1,-1],"loss_changes":[3.0142963E8,3.0163792E6,2.929056E6,2.0315023E5,1.5890375E5,0E0,0E0,1.1204483E4,3.129625E3,0E0,0E0,6.061216E2,0E0,0E0,0E0,0E0,0E0],"parents":[2147483647,0,0,1,1,2,2,3,3,4,4,7,7,8,8,11,11],"right_children":[2,4,6,8,10,-1,-1,12,14,-1,-1,16,-1,-1,-1,-1,-1],"split_conditions":[4.415386E0,1.955483E0,7.569262E0,1.0360461E0,2.2252722E0,3.155875E2,1.2166E3,5.5643562E-2,1.1831E0,3.8629166E1,1.1980938E2,4.6149567E-2,5.3093753E0,6.490625E0,2.5393751E1,-9.471181E-1,9.296875E-1],"split_indices":[0,0,0,0,0,0,0,0,0,0,0,0,0,0,0,0,0],"split_type":[0,0,0,0,0,0,0,0,0,0,0,0,0,0,0,0,0],"sum_hessian":[1E2,9.8E1,2E0,9.5E1,3E0,1E0,1E0,9.2E1,3E0,2E0,1E0,9E1,2E0,1E0,2E0,8.9E1,1E0],"tree_param":{"num_deleted":"0","num_feature":"4","num_nodes":"17","size_leaf_vector":"1"}},{"base_weights":[3.237757E2,3.6259785E1,9.703875E3,6.970039E0,9.7120834E1,2.9980624E2,1.155775E3,-5.0994015E0,2.8885939E1,-8.256182E0,6.7992187E0,-8.544097E0,8.828125E-1,-8.6494255E-1,-4.1171876E-1],"categories":[],"categories_nodes":[],"categories_segments":[],"categories_sizes":[],"default_left":[0,0,0,0,0,0,0,0,0,0,0,0,0,0,0],"id":85,"left_children":[1,3,5,7,-1,-1,-1,9,-1,11,-1,13,-1,-1,-1],"loss_changes":[2.7203786E8,